{"meta":{"architecture":"ResNet1D-Lightweight","sequence_length":16,"n_features":20,"feature_names":["deltaYaw","deltaPitch","aimError","gcdResY","gcdResP","angVel","angAccel","jerk","atkIntervalMs","cps","attackerYaw","attackerPitch","targetYaw","targetPitch","yawError","pitchError","distanceToTarget","movementAngle","sprinting","blocking"],"total_params":57385},"weights":{"input_norm.gamma":[1.0059903860092163,1.0040695667266846,0.9997115731239319,0.997706413269043,0.9987087249755859,1.0007030963897705,0.9963160157203674,0.994326114654541,1.0015157461166382,0.9970596432685852,0.9996111989021301,1.0050772428512573,0.9959009289741516,0.9940149188041687,1.0038483142852783,0.9983717203140259,1.0087666511535645,0.9920478463172913,1.00089693069458,1.0086936950683594],"input_norm.beta":[-0.0018947138451039791,0.0008282577618956566,-0.001067061093635857,-0.004634795244783163,-0.0027112856041640043,0.002080334350466728,-0.0059476508758962154,0.003767522517591715,0.007119153160601854,0.006516406778246164,0.0071814837865531445,0.008390523493289948,0.008551543578505516,-0.0075022149831056595,-0.0020830868743360043,0.005445546004921198,0.001438307692296803,0.00450916588306427,0.007359961047768593,0.0015459386631846428],"conv1.conv.weight":[[[0.010127314366400242,-0.0008465580176562071,-0.05994619056582451,0.05235014483332634,-0.017180249094963074],[0.02409810572862625,0.018819119781255722,0.0707152858376503,0.09336841106414795,-0.009424323216080666],[0.08988630026578903,-0.04255151003599167,-0.04604220390319824,-0.02984023652970791,-0.08506733179092407],[-0.028728477656841278,-0.012094293721020222,0.023920288309454918,-0.022106600925326347,0.002363398903980851],[0.040476083755493164,0.08751069754362106,-0.003077061614021659,-0.010215074755251408,0.07323524355888367],[-0.03157985955476761,-0.08174911886453629,-0.09881565719842911,-0.08063613623380661,-0.07035861164331436],[0.00974054355174303,-0.0639413446187973,0.050056539475917816,0.007211930584162474,-0.030374247580766678],[0.047990795224905014,0.08342369645833969,-0.06832889467477798,-0.023531952872872353,-0.08110634982585907],[-0.058446623384952545,-0.10743735730648041,-0.08493892848491669,-0.10027273744344711,0.036391183733940125],[-0.07837478816509247,-0.0023481191601604223,-0.07492911070585251,0.03172900900244713,-0.03443474322557449],[0.08511713892221451,0.005789574235677719,-0.09782474488019943,0.051420219242572784,-0.05986400693655014],[0.058428529649972916,-0.06250704824924469,0.05360491946339607,0.03773953765630722,-0.02341254986822605],[0.04467364400625229,-0.08536014705896378,0.040240149945020676,0.05886201933026314,-0.062445081770420074],[0.029811205342411995,-0.07432243227958679,-0.016643676906824112,0.049924738705158234,0.038352567702531815],[0.09221849590539932,-0.03709447756409645,-0.09814021736383438,-0.08478216826915741,-0.06736672669649124],[-0.06063644960522652,0.015487480908632278,-0.008357170969247818,0.04684017226099968,0.07902374118566513],[0.004807271994650364,0.020891405642032623,-0.008940456435084343,-0.1015692949295044,-0.026930365711450577],[-0.03811201453208923,0.08805486559867859,-0.07562284171581268,0.07164227962493896,0.08627352863550186],[-0.05174564570188522,-0.09354037046432495,0.006968087051063776,0.0839446410536766,0.09596256166696548],[-0.09342724084854126,-0.031656328588724136,0.07080750167369843,0.030103115364909172,-0.0822528600692749]],[[0.0307944156229496,-0.021466007456183434,-0.0789688304066658,0.005295522976666689,0.001501287566497922],[0.028106750920414925,-0.07054629921913147,-0.009956696070730686,-0.011121265590190887,-0.029427293688058853],[-0.04591215029358864,0.09803901612758636,-0.006374100688844919,0.019000815227627754,-0.004670288879424334],[0.08697521686553955,-0.06174978241324425,0.026820102706551552,-0.039426498115062714,0.033636707812547684],[0.0011070414911955595,0.011065676808357239,-0.01770484633743763,-0.09751850366592407,-0.05146041139960289],[0.04077300801873207,0.06105807423591614,0.035737037658691406,-0.044565118849277496,-0.08405717462301254],[0.04690665006637573,0.10337679088115692,-0.0906403660774231,-0.0040054223500192165,0.014634407125413418],[0.09470994025468826,0.06211082637310028,-0.02034435048699379,0.09533566236495972,0.032822612673044205],[-0.05386589094996452,-0.007565793115645647,0.0445382222533226,0.029224438592791557,0.025884738191962242],[0.07189375162124634,0.04470210149884224,0.0570925809442997,-0.008207283914089203,0.0696796253323555],[0.08867590129375458,0.025495538488030434,-0.019480980932712555,-0.0769319087266922,0.014408936724066734],[0.06831471621990204,0.08832507580518723,0.10073470324277878,0.06105317920446396,0.0046523925848305225],[-0.09139581024646759,0.07919090241193771,-0.09677719324827194,-0.10370980203151703,0.04784208536148071],[0.024891553446650505,0.0996289923787117,-0.06414716690778732,0.04168058931827545,0.043747738003730774],[-0.008715001866221428,0.02222110517323017,-0.035769619047641754,-0.026728184893727303,0.03238252177834511],[0.012746097519993782,-0.07662501186132431,-0.08150443434715271,0.058946672827005386,-0.05858408659696579],[-0.027308285236358643,0.04144318029284477,0.0027157021686434746,0.040083687752485275,-0.09936390817165375],[0.006465730257332325,0.09597140550613403,0.0016031423583626747,-0.030386313796043396,0.06801564246416092],[-0.007811254821717739,0.06631544977426529,0.055277857929468155,-0.020682308822870255,0.0646643415093422],[0.02646978758275509,-0.05943336337804794,-0.015322546474635601,-0.059702981263399124,-0.08943446725606918]],[[-0.08277443796396255,-0.09878256171941757,-0.013742305338382721,-0.03280029818415642,-0.09870583564043045],[0.02072835899889469,-0.06655783206224442,-0.05710689350962639,0.009178594686090946,-0.0703902468085289],[-0.04454108327627182,0.0212513729929924,-0.05757714435458183,0.04534544795751572,-0.07555881887674332],[0.05982133373618126,0.013907993212342262,-0.07093901932239532,-0.06557515263557434,0.050074782222509384],[0.024997519329190254,0.046522315591573715,0.03922825679183006,0.01255219615995884,-0.03132171556353569],[0.06403570622205734,-0.05984555929899216,0.047672122716903687,-0.03008054755628109,0.06609805673360825],[0.01020138431340456,-0.035894304513931274,0.05181124061346054,0.0436176136136055,-0.0798017680644989],[-0.06908424943685532,0.03361593559384346,0.04523487761616707,0.05030662938952446,0.08275263011455536],[0.031225766986608505,0.03659726679325104,-0.08157660067081451,0.06475523859262466,0.032368436455726624],[0.05522548407316208,0.046895936131477356,-0.006872253958135843,-0.10627787560224533,0.09466194361448288],[0.08062919229269028,0.0791846290230751,0.008950070478022099,-0.08997666090726852,-0.059830743819475174],[0.08808395266532898,0.08828199654817581,0.04741289094090462,-0.03641132637858391,-0.038584694266319275],[0.09201476722955704,-0.06514321267604828,-0.028830766677856445,-0.011093202978372574,0.022136785089969635],[0.03485804423689842,0.06190967932343483,-0.09322449564933777,0.08586760610342026,8.084648288786411e-05],[-0.014372102916240692,0.033445701003074646,0.018291009590029716,0.0704534649848938,-0.029214702546596527],[-0.09349830448627472,-0.08617036044597626,-0.03235562890768051,-0.015135789290070534,-0.04333341121673584],[0.06266944110393524,0.07128626108169556,-0.03226528316736221,-0.07377105951309204,-0.08569217473268509],[0.08171849697828293,0.06817183643579483,0.07110704481601715,-0.004091386683285236,-0.08597514033317566],[0.019237928092479706,0.03566047176718712,-0.05898825824260712,-0.09285146743059158,-0.080994613468647],[-0.05253513902425766,0.018936675041913986,-0.08146018534898758,-0.0578378364443779,0.07931363582611084]],[[-0.06286615133285522,0.10032141208648682,-0.028562992811203003,0.04885904863476753,-0.019188646227121353],[0.07454840838909149,-0.07706212997436523,-0.036175794899463654,-0.017977891489863396,0.09381196647882462],[-0.020452842116355896,-0.03254314512014389,0.02107476256787777,-0.030086757615208626,0.0761931762099266],[0.07170188426971436,-0.0039591300301253796,0.04885179176926613,-0.02443547360599041,-0.02535037137567997],[0.025850770995020866,-0.04330701008439064,0.07465969771146774,-0.06669224798679352,0.049840833991765976],[0.0018011515494436026,-0.09282597154378891,0.02703297697007656,0.016202744096517563,0.09804955124855042],[-0.08589091897010803,-0.03084302879869938,0.0812116414308548,-0.06205972284078598,-0.08325611799955368],[0.07498306781053543,0.03815676271915436,-0.031165577471256256,0.007645974401384592,-0.09050118178129196],[-0.04540514200925827,0.051854752004146576,-0.09481927752494812,0.043420977890491486,0.02108142338693142],[0.004841664806008339,-0.029733888804912567,0.06973152607679367,0.009334580041468143,0.09018734842538834],[-0.007779436651617289,-0.03467822074890137,0.01542472094297409,-0.05460458621382713,0.07927875965833664],[-0.020448988303542137,0.06340743601322174,0.04382587969303131,0.05112651735544205,-0.00277234660461545],[0.037197694182395935,0.05662288889288902,-0.0213713888078928,-0.022654376924037933,0.03574578836560249],[-0.06475531309843063,0.04176901653409004,0.08852086961269379,-0.001565857557579875,-0.07128573954105377],[-0.07612358778715134,-0.035687271505594254,0.06817585229873657,-0.0869087353348732,-0.048473626375198364],[-0.09215491265058517,-0.0035116823855787516,0.06880243122577667,0.03537431359291077,-0.02902570366859436],[-0.005960999522358179,0.036749981343746185,0.007657289505004883,0.08253059536218643,0.07601135969161987],[0.09723082929849625,0.0743275061249733,-0.047323837876319885,-0.03948904573917389,0.07627632468938828],[0.016583554446697235,0.09476658701896667,-0.06464904546737671,0.07324904948472977,-0.006039628759026527],[-0.012629874981939793,0.008427402935922146,0.06013856455683708,0.0011756984749808908,0.03864070773124695]],[[0.07136090844869614,0.0423346646130085,0.10674480348825455,0.08198237419128418,-0.07113295793533325],[0.0035242752637714148,-0.01632426120340824,0.051397062838077545,-0.04370619356632233,-0.03115306980907917],[0.10228655487298965,-0.04676927253603935,0.07080500572919846,0.06525903940200806,0.08464156091213226],[-0.038495395332574844,-0.060467615723609924,-0.06859254091978073,-0.07872797548770905,0.02880282886326313],[0.0882122591137886,-0.08847637474536896,0.07834430038928986,0.0525953508913517,-0.006575740408152342],[-0.08756481111049652,-0.00468417489901185,-0.0631067082285881,0.07647885382175446,0.08352123200893402],[0.09008467197418213,0.08994460850954056,0.02428693138062954,0.07026012986898422,-0.029744282364845276],[-0.0041608489118516445,0.0211184062063694,-0.06061003357172012,0.08617380261421204,-0.044952116906642914],[-0.052304524928331375,0.007212146185338497,-0.008515637367963791,-0.09317296743392944,-0.08746390044689178],[-0.09934817254543304,-0.04815632477402687,0.057878512889146805,0.013314434327185154,0.001968975178897381],[0.09721865504980087,0.01775943860411644,-0.039378296583890915,0.060954879969358444,-0.07008297741413116],[0.09169546514749527,0.07648064196109772,-0.010393385775387287,0.08711952716112137,-0.035950686782598495],[-0.029469404369592667,-0.011513080447912216,0.017084728926420212,0.02746754139661789,-0.019416043534874916],[0.08258409053087234,-0.019552674144506454,-0.0312749408185482,0.08336793631315231,0.007131804246455431],[0.007272849325090647,0.0675959587097168,0.02016467973589897,0.0807262733578682,-0.09884104132652283],[-0.016575312241911888,0.004131483379751444,-0.02133442834019661,0.006513821892440319,0.008002007380127907],[-0.05540640279650688,0.011180938221514225,-0.0875343456864357,-0.06804101914167404,0.09343113750219345],[0.02474597841501236,-0.02206246927380562,0.06356287002563477,-0.07695677131414413,0.09970594197511673],[0.07993785291910172,0.019590744748711586,0.04918466508388519,0.059568651020526886,0.055524490773677826],[0.021633123978972435,-0.07440268993377686,-0.07174243777990341,0.04667435213923454,-0.06267601251602173]],[[0.09113328158855438,0.011595266871154308,0.05641012266278267,0.018451007083058357,0.015046094544231892],[0.06539182364940643,0.08928992599248886,-0.003843646962195635,-0.05268405005335808,-0.04152079299092293],[0.04078790172934532,-0.030957691371440887,-0.014455350115895271,0.038491543382406235,-0.05641055479645729],[0.012485293671488762,0.042794015258550644,-0.05672929063439369,0.09487298130989075,0.02222907915711403],[-0.06057058647274971,0.08495666831731796,-0.09100685268640518,-0.07164236158132553,0.08916208148002625],[-0.021023007109761238,0.06958992779254913,0.07382910698652267,-0.0712723582983017,0.027765683829784393],[-0.04822160676121712,-0.02108200080692768,0.07873343676328659,0.023472312837839127,0.02832029201090336],[0.040895700454711914,0.019522443413734436,0.026499701663851738,0.07373461127281189,-0.027131380513310432],[0.05184899643063545,0.03524130955338478,0.0912591814994812,0.003229950089007616,-0.08876799046993256],[-0.04619169235229492,0.015616527758538723,-0.018990658223628998,0.03256460279226303,0.01140855997800827],[-0.0765734538435936,-0.09503567218780518,-0.0880514457821846,0.04330633953213692,0.05889667570590973],[-0.0021408568136394024,0.08864521235227585,0.027874991297721863,-0.08997040241956711,0.02150532975792885],[0.019457247108221054,-0.07814249396324158,-0.005774701479822397,0.014463762752711773,0.09479256719350815],[0.015510394237935543,-0.024674003943800926,-0.055245086550712585,-0.07321901619434357,0.01312377117574215],[-0.019831515848636627,-0.043758831918239594,0.02904587797820568,-0.04866626113653183,0.07740391790866852],[0.008271735161542892,0.021230366080999374,0.03519143909215927,0.06774692237377167,0.07712803035974503],[-0.08313360065221786,0.061825819313526154,-0.08024562150239944,0.015608164481818676,0.04960115626454353],[0.06978447735309601,0.011870800517499447,0.005662195850163698,-0.02376004494726658,0.04967024549841881],[0.051279205828905106,0.06332001835107803,-0.06846500933170319,-0.05189454182982445,0.09497685730457306],[-0.07794024050235748,0.02240048535168171,0.09638199955224991,-0.05712094530463219,0.09495288878679276]],[[0.06864377111196518,-0.08583388477563858,0.0045152464881539345,0.07479013502597809,0.030169129371643066],[0.019999481737613678,-0.006523980293422937,-0.0652385726571083,0.03675348311662674,-0.002674864837899804],[-0.06400535255670547,0.038793131709098816,0.07183001935482025,0.06273865699768066,0.0015966891078278422],[0.03137927129864693,-0.018233194947242737,0.06665872037410736,-0.08122926950454712,-0.04169571399688721],[-0.00033548407373018563,0.007954305037856102,-0.04208773747086525,-0.06685734540224075,0.05543283745646477],[0.07734113186597824,-0.008168165571987629,-0.0035580911207944155,-0.028934894129633904,0.05769047141075134],[0.004871566314250231,-0.03375392407178879,-0.0437946543097496,0.03434387221932411,-0.0008597021223977208],[-0.10110989958047867,0.09612347185611725,0.09148073941469193,0.0735936164855957,-0.06323862075805664],[0.06998291611671448,-0.0987965390086174,-0.0241740383207798,-0.05069909617304802,-0.01314474642276764],[0.08488031476736069,-0.013370475731790066,0.012222087010741234,0.03468191251158714,0.02413567714393139],[-0.03315972536802292,0.048810359090566635,0.01318774838000536,-0.03346213325858116,-0.03910825774073601],[0.0328771248459816,-0.046960048377513885,-0.004260423593223095,-0.06798899918794632,-0.08464784920215607],[-0.009281370788812637,0.04304978996515274,0.06714814156293869,0.07207538187503815,-0.052072230726480484],[-0.04496213421225548,-0.05149836465716362,-0.028058333322405815,3.840686986222863e-05,-0.08922386914491653],[-0.09018224477767944,-0.08768448978662491,0.007642342709004879,-0.057216282933950424,-0.017314309254288673],[-0.0671791359782219,0.06951460987329483,0.04833781719207764,-0.0004989971057511866,-0.09466473013162613],[0.00935615599155426,0.10104832053184509,0.06994412839412689,-0.09771721065044403,0.058953434228897095],[-0.0787399634718895,0.061540860682725906,0.05984847992658615,-0.02657555602490902,0.028064483776688576],[0.06784193217754364,-0.0780177041888237,-0.055083949118852615,0.015112851746380329,0.09607117623090744],[-0.07158369570970535,0.08459578454494476,0.027391983196139336,0.02676439844071865,0.033878300338983536]],[[-0.053887125104665756,-0.0029980724211782217,0.08664005994796753,0.06506271660327911,0.08629728108644485],[-0.013153545558452606,-0.05836550146341324,0.07367028295993805,0.06582598388195038,0.013394583947956562],[0.030565405264496803,0.0028283826541155577,-0.09761227667331696,0.053652357310056686,-0.03359268233180046],[-0.02299775369465351,-0.09413039684295654,-0.07583410292863846,0.0024856445379555225,-0.0016643229173496366],[0.08571828901767731,-0.04066690802574158,-0.06227264180779457,-0.04623061791062355,-0.07917889207601547],[0.05817029997706413,-0.068025603890419,0.05347171798348427,0.0812753215432167,-0.09193984419107437],[0.06415461748838425,0.010213077999651432,-0.0609704963862896,-0.02766210213303566,-0.025841498747467995],[-0.03548533469438553,-0.00850899238139391,0.0006847082986496389,-0.05470931902527809,-0.03831791877746582],[-0.03465476632118225,0.0786743313074112,0.03141230344772339,0.051096078008413315,-0.04994182288646698],[-0.021270645782351494,-0.008123856037855148,-0.0709238201379776,-0.04312187433242798,-0.0307470615953207],[0.06302714347839355,0.0338241383433342,-0.006086946465075016,-0.05434335023164749,-0.06131996959447861],[-0.022719914093613625,-0.06963702291250229,0.015149582177400589,-0.07555747032165527,0.05473616346716881],[0.05915041267871857,-0.0825800970196724,-0.06623378396034241,-0.07164263725280762,-0.0702422484755516],[0.07657843828201294,0.030222561210393906,0.08982745558023453,0.04532567039132118,-0.014975559897720814],[-0.02322106622159481,0.07663002610206604,0.07061737030744553,0.05852305144071579,-0.030293146148324013],[0.08983677625656128,0.041739705950021744,0.06167324259877205,0.024532942101359367,0.0793592780828476],[-0.060138776898384094,0.01826629601418972,0.08516226708889008,-0.09448947757482529,-0.0819840207695961],[-0.07770733535289764,-0.07189100980758667,0.08862895518541336,0.011274782940745354,-0.017283085733652115],[-0.0009408771293237805,0.09041561931371689,0.09039061516523361,0.05812225490808487,-0.0024817930534482002],[0.07681991904973984,0.019177857786417007,0.018051909282803535,0.050396502017974854,0.05287458002567291]],[[-0.037441153079271317,-0.09512554109096527,-0.04027421399950981,-0.07023589313030243,0.04027250409126282],[-0.09542670100927353,0.03553197160363197,0.07929310947656631,0.08585318922996521,0.0960153192281723],[0.07897520065307617,-0.005952088162302971,-0.05436171591281891,0.004136850591748953,-0.021340729668736458],[0.07975998520851135,-0.027747491374611855,-0.040940143167972565,-0.023704754188656807,0.09484925121068954],[-0.05273132398724556,-0.10148058086633682,-0.012750450521707535,-0.001717113540507853,0.07697474211454391],[-0.022931870073080063,-0.09294600784778595,0.0545336939394474,0.0667254626750946,0.0801893100142479],[0.07230129837989807,-0.07560578733682632,-0.014790626242756844,-0.07970432937145233,0.003882845863699913],[-0.08387995511293411,-0.020733332261443138,0.034122247248888016,-0.035719193518161774,-0.020693810656666756],[-0.03848772123456001,0.025823580101132393,0.03820676729083061,0.02947496436536312,0.06055804342031479],[-0.02641473524272442,0.0980609878897667,-0.033605799078941345,-0.09908199310302734,-0.07776153832674026],[-0.04160065948963165,0.027744151651859283,0.010446969419717789,-0.0712069720029831,-0.061158038675785065],[-0.020627275109291077,-0.05464184656739235,0.02493327111005783,0.06573210656642914,-0.01441992912441492],[0.012032772414386272,0.009073074907064438,0.00489015830680728,-0.015552205964922905,-0.08599378168582916],[-0.005138041451573372,0.009734014049172401,0.06372291594743729,0.0852876678109169,0.08706191182136536],[0.02254570461809635,0.06832215934991837,-0.01299579069018364,0.012191644869744778,-0.09861989319324493],[0.010743042454123497,0.014189361594617367,-0.027635589241981506,-0.02498500607907772,-0.03195580840110779],[0.06753559410572052,-0.05360900238156319,0.016151737421751022,-0.0602390393614769,0.08536110073328018],[0.0559074729681015,-0.054068490862846375,0.037334103137254715,0.06549756228923798,-0.06629502773284912],[0.03511778637766838,0.0004920316278003156,-0.00021196011221036315,-0.00915459729731083,0.057070065289735794],[0.006842066999524832,0.0033006330486387014,0.06668532639741898,-0.010350960306823254,0.054965849965810776]],[[-0.09302793443202972,-0.0368860699236393,-0.09611358493566513,-0.04473823308944702,-0.09309229254722595],[-0.05831645801663399,0.09375961869955063,0.006796195171773434,0.0067762103863060474,-0.06254813075065613],[-0.06758220493793488,0.028195921331644058,-0.07398881763219833,0.08152914047241211,-0.04578566178679466],[0.030596019700169563,-0.02050664648413658,-0.0653265044093132,0.04188856855034828,-0.03495261073112488],[-0.06783483922481537,0.06541863828897476,0.06783350557088852,-0.047037523239851,-0.07664977014064789],[0.06983111053705215,-0.06053059175610542,-0.1025918647646904,-0.06813079863786697,-0.07705856114625931],[-0.07425253838300705,0.03321539983153343,0.029120327904820442,-0.10735519975423813,-0.05216961354017258],[-0.04590008780360222,-0.03335069119930267,-0.03428609296679497,-0.014773898757994175,0.09428572654724121],[0.025225529447197914,0.046319566667079926,-0.07232195883989334,-0.08385972678661346,-0.03727896511554718],[-0.07283920794725418,-0.07221437990665436,-0.04570939391851425,-0.04912956804037094,-0.06649818271398544],[-0.02762608416378498,-0.05157945677638054,0.09506776183843613,-0.09616440534591675,0.08775372803211212],[0.07824601233005524,-0.04998471587896347,-0.06524650007486343,0.07450868934392929,-0.06941106915473938],[-0.0025307806208729744,-0.05773448944091797,0.054082222282886505,-0.09849724173545837,0.02907896786928177],[0.07748448848724365,0.08909518271684647,0.011362766847014427,-0.026827372610569,-0.053536299616098404],[-0.04784594476222992,-0.04535524547100067,0.0023109589237719774,0.04847079887986183,-0.0072452835738658905],[-0.07901124656200409,0.08215495198965073,0.056858129799366,-0.05507931113243103,-0.08057851344347],[0.030087023973464966,-0.09222842007875443,-0.07690554857254028,-0.04926414415240288,0.05000987648963928],[0.02757459320127964,-0.0023634983226656914,-0.015572689473628998,0.027896510437130928,-0.049477469176054],[0.06985096633434296,-0.042978256940841675,0.012096213176846504,0.0007817414007149637,-0.055518925189971924],[-0.0813232883810997,-0.0856349840760231,-0.10375393182039261,-0.09007547050714493,-0.04706932231783867]],[[0.05951252952218056,0.0838417112827301,0.06425470113754272,-0.06632740795612335,0.06104431301355362],[-0.09252321720123291,-0.025700151920318604,0.0018232621951028705,0.032921403646469116,0.0308418907225132],[-0.05360671877861023,-0.04660053551197052,0.09418757259845734,0.004346127156168222,-0.06172327324748039],[-0.020995119586586952,-0.00097252445993945,-0.05004965886473656,0.005106187425553799,0.03681012988090515],[-0.08147811889648438,-0.09749971330165863,-0.017556851729750633,0.08905280381441116,-0.06894153356552124],[-0.02971060946583748,-0.05055830627679825,0.026644064113497734,0.07980626821517944,0.002447781153023243],[0.012771885842084885,0.04991677403450012,-0.0015223273076117039,-0.021513165906071663,-0.10218688100576401],[-0.07448657602071762,-0.08013647049665451,0.08143606036901474,-0.0686899796128273,0.031214691698551178],[0.06392745673656464,-0.04826762527227402,0.08050981163978577,-0.05554823949933052,0.0587160624563694],[-0.09089995175600052,-0.07226524502038956,-0.019686147570610046,-0.018640203401446342,-0.01089953538030386],[0.008893165737390518,-0.07697254419326782,0.07308703660964966,-0.0005038238596171141,-0.006566014606505632],[-0.04802544042468071,-0.055046454071998596,0.07061345130205154,-0.002420189790427685,0.07619363069534302],[-0.004227686673402786,-0.07254866510629654,-0.005710457917302847,-0.07185253500938416,0.0548827089369297],[0.07051540166139603,0.08128826320171356,0.10202182084321976,0.040317486971616745,0.040467116981744766],[-0.07340049743652344,-0.07111632823944092,0.09469880163669586,-0.08701170235872269,0.07075463980436325],[-0.007295539602637291,-0.0024772142060101032,0.08724226802587509,0.03323044627904892,-0.057836614549160004],[-0.006249004043638706,0.07307586818933487,-0.07281582802534103,0.0831490084528923,0.07373829931020737],[-0.01215300988405943,0.025908825919032097,0.03861554339528084,-0.034062180668115616,0.07394065707921982],[0.0813339501619339,0.007294368464499712,0.08858790248632431,0.06891114264726639,-0.04756014421582222],[-0.0954868420958519,0.09620804339647293,-0.06175392121076584,0.03746280074119568,0.0032739676535129547]],[[-0.01781836897134781,0.028871113434433937,-0.025604570284485817,-0.06880278885364532,0.04363517090678215],[-0.03500504791736603,0.023649422451853752,-0.08168502897024155,0.00655447319149971,-0.052163973450660706],[0.012617414817214012,0.07243268936872482,-0.06526923179626465,-0.07884007692337036,-0.0011110162595286965],[0.009214288555085659,0.08037817478179932,0.022339070215821266,0.05842900276184082,-0.031656067818403244],[-0.06320105493068695,0.043284714221954346,-0.006247654091566801,0.020375346764922142,-0.07348139584064484],[0.003939687740057707,-0.09303099662065506,0.06912564486265182,-0.03381245210766792,0.010499270632863045],[-0.04284403473138809,-0.010675499215722084,0.05451172590255737,-0.020601803436875343,0.08796219527721405],[-0.019013555720448494,0.04266151413321495,-0.08450625091791153,0.03311814367771149,-0.03138487786054611],[-0.023336250334978104,0.028369015082716942,-0.10664516687393188,-0.00404629111289978,0.06488459557294846],[0.08101952075958252,-0.09349308907985687,0.03341793641448021,-0.10146027058362961,-0.03378647193312645],[-0.07261234521865845,0.023361947387456894,-0.05532558634877205,-0.09850150346755981,0.08759524673223495],[-0.0007129915757104754,0.028343016281723976,0.001511103822849691,0.05165515094995499,0.09182479232549667],[-0.06482260674238205,-0.06104045361280441,-0.014375357888638973,-0.0371633805334568,0.07957513630390167],[0.07082570344209671,0.050018928945064545,0.015859553590416908,-0.06611959636211395,0.008865014649927616],[-0.04042340815067291,-0.04275582730770111,-0.0397670716047287,0.08430903404951096,-0.049848515540361404],[0.016237245872616768,-0.09473110735416412,-0.09270679950714111,-0.04270259290933609,0.019345596432685852],[0.07870548218488693,-0.057800501585006714,-0.0773688480257988,0.09840615838766098,0.09380720555782318],[0.09277760237455368,0.06410495936870575,-0.0005573642556555569,0.01033832784742117,-0.012757031247019768],[-0.01568572409451008,0.006116879638284445,0.033787693828344345,-0.024671413004398346,-0.01936628855764866],[0.011018360033631325,0.02921234257519245,0.01704491674900055,-0.039535749703645706,-0.03822268545627594]],[[0.015167158097028732,0.007123029325157404,-0.0940346047282219,0.07789164036512375,0.05485731363296509],[0.015232865698635578,-0.06905149668455124,0.0617382675409317,-0.054583147168159485,-0.056814201176166534],[0.027037397027015686,-0.03361471742391586,0.06993849575519562,-0.022228429093956947,0.03599628061056137],[-0.07469864934682846,0.045076634734869,0.07223129272460938,0.0746554583311081,0.050737373530864716],[0.09898221492767334,-0.02902376651763916,-0.03756163269281387,0.03646737337112427,-0.032096341252326965],[0.09615331888198853,-0.015488669276237488,0.01683168299496174,0.047409698367118835,0.08383797109127045],[0.06617101281881332,0.014626694843173027,0.06024076044559479,-0.08047626912593842,0.018275974318385124],[-0.012325393967330456,0.09411101788282394,-0.04504385218024254,0.0316687636077404,-0.03309188783168793],[0.04426736757159233,-0.0538460835814476,0.0800660029053688,-0.0933150202035904,0.06783496588468552],[0.010515611618757248,-0.06811639666557312,0.008108193054795265,0.0713728591799736,0.0859442949295044],[-0.06389006227254868,0.05195881053805351,-0.005775224417448044,0.04309295490384102,-0.025649357587099075],[0.05791351944208145,-0.009913202375173569,-0.04051655903458595,-0.09119947999715805,-0.07356235384941101],[-0.05057735741138458,-0.040539663285017014,0.09555522352457047,0.04750627279281616,0.037253331393003464],[-0.027810851112008095,0.02572980709373951,-0.08218556642532349,-0.07137351483106613,0.07498133927583694],[-0.04017612710595131,-0.024403342977166176,-0.03509756922721863,0.08474650233983994,-0.03025316447019577],[-0.07882717996835709,-0.0898163914680481,-0.05347101762890816,-0.060311052948236465,-0.008139134384691715],[-0.0834023654460907,0.015565707348287106,0.08856667578220367,-0.05290288105607033,0.09337694197893143],[-0.0018499922007322311,-0.07089715451002121,-0.037316493690013885,-0.08261264860630035,-0.09611491858959198],[0.03912203013896942,0.045978058129549026,-0.05663502216339111,0.010894161649048328,-0.0732424184679985],[-0.012428407557308674,-0.038975562900304794,-0.015601479448378086,0.0005376125336624682,-0.0633707344532013]],[[-0.0047869025729596615,0.07106108963489532,-0.05458523705601692,-0.06845786422491074,0.048800814896821976],[0.0067655956372618675,-0.023370563983917236,0.028291964903473854,-0.09061184525489807,0.007579554338008165],[0.09862654656171799,-0.086161769926548,0.0846942886710167,0.0379190519452095,-0.024777807295322418],[-0.02236895263195038,-0.026320723816752434,0.04811147600412369,-0.09374521672725677,0.06132723018527031],[-0.027943527325987816,0.09046065807342529,-0.020031828433275223,-0.07018064707517624,-0.06743302941322327],[-0.008467611856758595,0.09330873936414719,0.0538208894431591,0.0035644357558339834,-0.024438807740807533],[0.08783884346485138,-0.09537461400032043,0.009674525819718838,-0.05169397592544556,-0.04033263772726059],[0.022153837606310844,0.08677031099796295,-0.04953765124082565,-0.010981572791934013,-0.054586537182331085],[-0.010344118811190128,-0.06901916116476059,0.06639578193426132,-0.0009654241148382425,-0.022474145516753197],[0.026370659470558167,-0.03692123666405678,-0.08843743801116943,-0.05350009724497795,0.0021020437125116587],[0.07539109140634537,0.012267225421965122,0.03536868467926979,-0.09300073981285095,-0.09396489709615707],[-0.049043141305446625,-0.009626667015254498,-0.00378489401191473,0.009249167516827583,-0.07075807452201843],[-0.04437510669231415,0.06054079160094261,0.09308832883834839,0.003580709220841527,0.037940241396427155],[0.04991433024406433,-0.08409898728132248,0.0015508525539189577,-0.08360927551984787,0.06988899409770966],[0.07736141979694366,-0.03007308579981327,0.08454278856515884,-0.04708336293697357,0.05609263852238655],[-0.07871969044208527,-0.0032157034147530794,0.046117160469293594,-0.004771888256072998,0.011756440624594688],[-0.01133670099079609,-0.04200174659490585,-0.04673866555094719,0.04933919757604599,0.035390470176935196],[0.05739550292491913,0.09903774410486221,-0.0563618540763855,-0.01672409474849701,-0.08323269337415695],[0.023151807487010956,0.014487586915493011,0.05047338083386421,0.08193212747573853,-0.0620722621679306],[0.03645148128271103,0.05029832571744919,0.059224940836429596,0.03542181849479675,-0.00986521691083908]],[[-0.06112133711576462,-0.08353276550769806,0.042245108634233475,0.05174059793353081,0.04230808839201927],[0.04483037069439888,-0.08689959347248077,-0.005709200166165829,-0.04878857359290123,0.019216885790228844],[0.0741129219532013,0.09295304119586945,-0.07481050491333008,0.0238910261541605,-0.06677920371294022],[-0.04895181581377983,-0.07007008045911789,0.0762116014957428,-0.09467452764511108,-0.06805291026830673],[-0.07414785027503967,-0.021701572462916374,-0.026233552023768425,0.06977719813585281,-0.0029113853815943003],[0.024215977638959885,0.04222174361348152,-0.04675022140145302,-0.04015255719423294,-0.00878210924565792],[-0.018377317115664482,0.013120945543050766,-0.030488507822155952,0.04354983568191528,0.07294870167970657],[-0.01000046357512474,0.060538116842508316,0.07702092826366425,-0.0659206211566925,0.0665835440158844],[0.0011250434909015894,0.02546815387904644,0.04292305186390877,-0.07007315009832382,0.04174179956316948],[0.06625593453645706,0.05206702649593353,0.0052477107383310795,-0.005302171688526869,0.08064589649438858],[-0.008141095750033855,0.01975695788860321,-0.06090869382023811,-0.04253547638654709,-0.05398162454366684],[-0.06232958659529686,0.03605130687355995,-0.046278007328510284,-0.09681657701730728,0.0477757602930069],[-0.08180118352174759,0.024975121021270752,-0.043933283537626266,0.008440585806965828,-0.02611728198826313],[-0.07597310841083527,0.038198914378881454,0.05604688078165054,0.016490008682012558,-0.015022740699350834],[0.06869079917669296,-0.03960620239377022,0.03651614487171173,-0.029199229553341866,-0.046355411410331726],[0.08092079311609268,-0.02745717391371727,-0.002357046352699399,0.06653154641389847,-0.024263517931103706],[-0.0985882431268692,-0.07450757175683975,0.011269142851233482,0.06213126704096794,-0.06379315257072449],[-0.09603454172611237,0.09290473908185959,-0.09205073118209839,-0.0041837627068161964,0.08273150771856308],[-0.06954760104417801,-0.07669605314731598,0.016128476709127426,-0.006638270802795887,0.09238124638795853],[-0.0965752825140953,-0.03720410540699959,0.0747348815202713,0.040031712502241135,-0.08192417025566101]],[[-0.09653494507074356,-0.052547890692949295,-0.017533190548419952,0.05397842451930046,-0.01711106114089489],[-0.07288961112499237,-0.09829917550086975,-0.09384147822856903,0.04457475617527962,-0.061216019093990326],[0.04397789016366005,-0.04878804832696915,0.02166133001446724,-0.030288025736808777,0.1059645414352417],[0.005349101964384317,-0.07265083491802216,0.0020752721466124058,-0.06385571509599686,0.07277677208185196],[-0.09239073842763901,0.06684654951095581,0.09600450098514557,0.056466083973646164,0.05047512426972389],[-0.06394922733306885,-0.031974535435438156,0.07318752259016037,-0.004484077449887991,0.05229997634887695],[-0.031521063297986984,-0.02809583581984043,0.09848751127719879,0.10012367367744446,-0.05192488804459572],[-0.09560293704271317,-0.006069125607609749,-0.005356403533369303,-0.07790904492139816,0.05098004639148712],[-0.05524774268269539,-0.030627673491835594,0.05592614412307739,-0.05743309482932091,-0.002551992889493704],[-0.04119955748319626,-0.09082639962434769,0.001345737255178392,-0.06789601594209671,0.05822315439581871],[0.04058969393372536,0.09417383372783661,0.09960849583148956,-0.04150138795375824,0.011995301581919193],[0.04807291179895401,-0.06400901079177856,-0.027706371620297432,0.06290016323328018,-0.022553270682692528],[-0.007350527681410313,0.03343624994158745,-0.09218905121088028,-0.05349372327327728,0.000882662134245038],[0.003407027805224061,-0.0305919349193573,0.023514650762081146,-0.03875884413719177,0.089206762611866],[0.03472275659441948,-0.0723133459687233,-0.01524139940738678,0.09067095816135406,-0.06792441010475159],[0.057715244591236115,-0.07948125153779984,-0.08062728494405746,-0.04239282384514809,0.0132036367431283],[0.0947410985827446,-0.04888876527547836,-0.0921626091003418,0.08882483839988708,0.08717980235815048],[-0.026774372905492783,0.08402922004461288,-0.030978210270404816,0.04649003595113754,-0.001252293004654348],[0.0038911367300897837,-0.08514522761106491,-0.08987214416265488,-0.07699315994977951,0.041835717856884],[-0.05628054589033127,0.03602319210767746,0.07439155131578445,-0.018843820318579674,-0.0798499584197998]],[[-0.03970032557845116,-0.08174072206020355,-0.09370110183954239,0.08471890538930893,0.0856742113828659],[-0.07792403548955917,-0.09106758236885071,-0.05492902547121048,-0.04398325830698013,-0.005623892415314913],[0.10226984322071075,0.004075672011822462,-0.08915741741657257,0.02373545616865158,0.10066655278205872],[-0.0434206984937191,-0.06794360280036926,-0.022302335128188133,0.0836610421538353,-0.0265970341861248],[-0.0736624151468277,-0.023474840447306633,-0.011053468100726604,0.003268665634095669,-0.07117146253585815],[0.09065478295087814,-0.041730619966983795,-0.04337184503674507,-0.06381893903017044,-0.10330013185739517],[0.026441501453518867,0.03538738936185837,0.0045016068033874035,0.08032622933387756,0.06843293458223343],[0.022078104317188263,0.0013663420686498284,-0.024758145213127136,0.08069702237844467,0.06504382938146591],[0.032096248120069504,-0.05992662161588669,0.04600632190704346,0.012979994527995586,-0.07787277549505234],[0.06239895522594452,-0.0671318769454956,0.020012615248560905,-0.07917787879705429,0.002388652414083481],[-0.020448295399546623,0.08105668425559998,0.06596839427947998,0.005440782755613327,-0.016548406332731247],[0.03635299205780029,0.07940662652254105,0.06202710419893265,0.03185528516769409,-0.06545339524745941],[0.06986837834119797,-0.09203165024518967,0.0877009853720665,0.04890277981758118,0.04603799059987068],[0.09204061329364777,0.09665699303150177,0.09785743057727814,0.04917474836111069,-0.007329924497753382],[0.025185147300362587,-0.08511332422494888,0.03379838913679123,0.05806056410074234,0.06536787003278732],[-0.10199394822120667,-0.07530590146780014,0.046857137233018875,-0.0001814302522689104,-0.031023260205984116],[-0.1066371351480484,-0.02779623307287693,-0.009264829568564892,0.07246717065572739,-0.031895801424980164],[0.07306230813264847,0.006705462466925383,-0.059400804340839386,-0.08512701094150543,0.060067448765039444],[0.050889622420072556,0.0602019838988781,-0.006513247266411781,0.025691822171211243,-0.0690636932849884],[-0.008276042528450489,-0.025744326412677765,-0.047611892223358154,0.03486005589365959,0.01721225306391716]],[[0.045796964317560196,-0.008846051059663296,0.031555645167827606,-0.06677496433258057,-0.10281762480735779],[0.03677811473608017,-0.08332786709070206,-0.08974209427833557,0.041691794991493225,-0.012978251092135906],[0.04705643281340599,-0.08076710999011993,-0.02171451598405838,0.05282241851091385,0.09483201801776886],[0.006984738167375326,-0.09433752298355103,0.04144826531410217,0.010820017196238041,0.0770440474152565],[0.052561089396476746,0.09022092074155807,0.03303511440753937,0.010111509822309017,-0.06556513905525208],[-0.009154362604022026,0.07719042152166367,-0.06798668950796127,0.04040626436471939,-0.07733425498008728],[-0.052298855036497116,-0.08726616203784943,-0.059286393225193024,0.020660536363720894,-0.018009928986430168],[0.004446881823241711,-0.09532306343317032,0.06376378238201141,-0.08318748325109482,0.07943323254585266],[0.026297233998775482,0.01646718569099903,-0.09236472100019455,-0.029082229360938072,0.062181368470191956],[0.031634945422410965,0.03270002081990242,-0.030100394040346146,0.022061903029680252,0.06424818933010101],[0.07637204974889755,0.09001212567090988,0.03555794060230255,-0.03526032716035843,0.08118213713169098],[0.06064426526427269,-0.09424527734518051,0.0834156796336174,0.05727101489901543,-0.026977943256497383],[-0.07900046557188034,-0.09514600783586502,-0.06815259903669357,-0.08153922110795975,-0.08727887272834778],[-0.07036275416612625,-0.039363645017147064,0.0726640373468399,0.09030784666538239,-0.04196888580918312],[0.036983441561460495,-0.014062349684536457,0.07673805952072144,0.06047870218753815,0.00026980970869772136],[0.005350628402084112,-0.051953673362731934,0.054211996495723724,0.09868988394737244,-0.06603654474020004],[-0.040817394852638245,-0.07400116324424744,-0.00317338271997869,0.028684135526418686,0.037597060203552246],[-0.008695104159414768,0.0734933465719223,0.052578311413526535,-0.07255430519580841,-0.01916293427348137],[-0.07765043526887894,-0.06276999413967133,-0.07545528560876846,-0.09541352838277817,-0.07364216446876526],[0.03785189986228943,0.08267825096845627,0.07229171693325043,0.06295191496610641,-0.057779669761657715]],[[0.048307906836271286,0.04404914751648903,0.08648847788572311,-0.03245117515325546,-0.009752138517796993],[-0.029834413900971413,0.006213478744029999,0.09057649970054626,0.008450940251350403,0.061147790402173996],[-0.0005885789869353175,0.08942659199237823,-0.0009952571708709002,-0.06200874596834183,0.03177390247583389],[0.019373854622244835,-0.0017991898348554969,0.0651678517460823,0.09016358852386475,0.06905017048120499],[0.04948536306619644,0.030458075925707817,-0.026192178949713707,0.013224645517766476,0.05465495586395264],[-0.05700703710317612,0.0379929281771183,-0.08978157490491867,-0.0032644313760101795,0.016599172726273537],[0.030160978436470032,-0.03289531543850899,-0.08350759744644165,-0.056820932775735855,-0.07432573288679123],[0.022434914484620094,-0.08196893334388733,0.05923611670732498,-0.08527319133281708,-0.03339197114109993],[0.05220479890704155,-0.05891862511634827,-0.09926262497901917,0.02944551780819893,-0.0808667466044426],[-0.08310233801603317,-0.05261067673563957,-0.040307484567165375,0.044774558395147324,-0.06043161079287529],[0.071046844124794,0.016502847895026207,0.08638771623373032,0.01368635706603527,-0.045312851667404175],[-0.09175187349319458,0.04137476906180382,0.011741306632757187,0.013442273251712322,0.07231844216585159],[0.022199232131242752,-0.08341427147388458,-0.09371000528335571,-0.039746806025505066,0.0011999942362308502],[0.027118703350424767,0.08127942681312561,-0.005553650204092264,0.07081805914640427,-0.02654963731765747],[0.05413326248526573,-0.06952247768640518,0.04479639604687691,0.06789647787809372,-0.053103528916835785],[0.03619719669222832,-0.012809736654162407,-0.09459034353494644,-0.030417878180742264,-0.09383847564458847],[-0.010771486908197403,0.07918106764554977,0.008501260541379452,0.0934346616268158,0.10762511938810349],[-0.011086306534707546,-0.07621537894010544,-0.05185068026185036,0.07010111957788467,0.066548191010952],[0.05549320578575134,-0.08111020177602768,-0.010504149831831455,-0.05366341769695282,-0.012304028496146202],[-0.012604180723428726,0.058208614587783813,0.07825557142496109,-0.0006653218879364431,0.01638418808579445]],[[0.04394464194774628,0.027804482728242874,-0.01833387278020382,0.025032853707671165,-0.09793873131275177],[-0.10459727793931961,0.09008405357599258,-0.0568043477833271,-0.05430031195282936,0.06854171305894852],[0.10302434861660004,-0.02745358645915985,-0.03289572894573212,0.0891607403755188,0.0430249348282814],[-0.026989610865712166,-0.0755639374256134,0.04227320849895477,-0.08051159232854843,-0.05069570988416672],[-0.01618020422756672,0.002600303618237376,-0.05989601090550423,0.008687582798302174,0.012622025795280933],[0.018809346482157707,0.037413354963064194,-0.08239688724279404,-0.06001012399792671,-1.437193714082241e-05],[-0.0533660426735878,-0.0016817005816847086,0.008146094158291817,-0.0632011741399765,-0.06874485313892365],[0.050714075565338135,-0.01692953146994114,0.015903415158391,-0.025271452963352203,0.020362526178359985],[0.06377366930246353,-0.05632968991994858,-0.06999494880437851,-0.04973317310214043,-0.09824292361736298],[0.0712452232837677,0.037388380616903305,-0.043220117688179016,0.010681571438908577,0.07269754260778427],[0.08366432785987854,0.054451581090688705,0.0762091875076294,0.09630347788333893,0.08130644261837006],[-0.043995387852191925,-0.02643679641187191,0.034045491367578506,0.023933807387948036,-0.08030282706022263],[-0.05268300324678421,-0.055416010320186615,0.09445519000291824,0.06728395074605942,-0.09135846793651581],[-0.08711528778076172,-0.08265502750873566,-0.02349008060991764,-0.018315739929676056,0.02035958133637905],[0.02319791167974472,-0.07438325881958008,0.013446366414427757,0.05033916234970093,-0.019014906138181686],[-0.004059554077684879,-0.04726536571979523,-0.08032044023275375,0.08958974480628967,-0.014439526945352554],[-0.04694217070937157,0.08368326723575592,-0.01492697186768055,0.001976547995582223,-0.028445057570934296],[0.08415249735116959,-0.03196651488542557,0.055538564920425415,0.002945840824395418,-0.0678480714559555],[-0.007255944423377514,-0.016018887981772423,-0.08644112944602966,-0.09505946934223175,0.0554070807993412],[0.018473612144589424,-0.03119937889277935,-0.0781550407409668,-0.0892447903752327,0.014976627193391323]],[[-0.08994457870721817,0.02646220661699772,-0.080723337829113,-0.09426646679639816,0.03833126649260521],[-0.055918753147125244,-0.015241210348904133,-0.06646218150854111,-0.023433532565832138,-0.026148581877350807],[0.009070929139852524,0.0006423719460144639,-0.007695300038903952,-0.021839367225766182,-0.05409923940896988],[0.07892397046089172,0.037875544279813766,0.08344727754592896,-0.07156990468502045,-0.012885751202702522],[-0.023692579939961433,0.08747337758541107,0.00739721953868866,0.09125588089227676,0.06261604279279709],[0.015060115605592728,-0.009374449029564857,0.030908837914466858,0.08232700824737549,-0.010706771165132523],[-0.04900234937667847,-0.01784009113907814,-0.07775358110666275,0.03917296230792999,-0.050129249691963196],[-0.07181297242641449,-0.06427174061536789,-0.07360252737998962,0.07610437273979187,-0.026829063892364502],[-0.02262708730995655,0.09403235465288162,0.007187020964920521,-0.027593223378062248,-0.06018085405230522],[0.004589755553752184,0.036493025720119476,0.04006963595747948,-0.019916094839572906,0.012883879244327545],[0.06554707139730453,-0.08030480146408081,0.04872645065188408,0.055513691157102585,-0.03703153878450394],[0.06898264586925507,-0.07925205677747726,-0.06343122571706772,0.08067928999662399,-0.059721674770116806],[-0.04798375070095062,0.08492659777402878,-0.08609317243099213,-0.0858570858836174,0.03257017582654953],[0.09996924549341202,-0.04985702410340309,-0.043951258063316345,-0.017672250047326088,0.03672025725245476],[-0.07022318989038467,0.0346827507019043,0.08917275816202164,-0.04988270625472069,-0.001212356728501618],[-0.090145044028759,0.036342088133096695,-0.04202045872807503,-0.048806868493556976,-0.059613317251205444],[-0.10732239484786987,-0.017834769561886787,0.03747140243649483,-0.0875750184059143,-0.08877161145210266],[-0.08234669268131256,-0.09442268311977386,-0.006775030866265297,-0.0462459921836853,0.0996592715382576],[-0.0008749903063289821,0.0882134810090065,0.09762660413980484,0.08719202131032944,-0.03920523449778557],[0.1030041053891182,0.07875528931617737,0.011474132537841797,-0.05059871822595596,-0.06696736812591553]],[[0.09877156466245651,0.058443017303943634,-0.027471061795949936,-0.03657123073935509,-0.09174276143312454],[0.029620572924613953,0.08939329534769058,-0.08961579948663712,0.03639893978834152,0.05313155800104141],[-0.006188879255205393,-0.061780381947755814,0.05683184042572975,-0.08428465574979782,-0.006121740210801363],[-0.0888541042804718,0.013629005290567875,-0.019183874130249023,0.09147412329912186,0.03162496164441109],[0.1007164716720581,-0.05290072411298752,0.0897296890616417,0.0810498297214508,0.004862918518483639],[0.07512375712394714,-0.028824370354413986,0.004122762009501457,-0.06334023922681808,-0.07624726742506027],[-0.0881388783454895,0.05930415913462639,-0.06231015548110008,0.08204372227191925,-0.03975566849112511],[-0.06637813150882721,0.05883454158902168,0.07055075466632843,-0.03306886926293373,-0.02888883277773857],[0.06780267506837845,-0.07982122898101807,0.07949452102184296,-0.044689636677503586,-0.08345393091440201],[0.05503589287400246,-0.05240772292017937,0.0546574629843235,-0.08308145403862,0.07241756469011307],[0.001425110618583858,0.046473342925310135,-0.07852045446634293,0.024027764797210693,-0.030630353838205338],[-0.10368872433900833,0.03487678989768028,0.0012589467223733664,-0.012762804515659809,-0.0251680389046669],[0.08397417515516281,0.023927271366119385,0.06958923488855362,-0.04101921245455742,-0.04108820855617523],[0.09084293246269226,0.06651853024959564,-0.013422006741166115,-0.07204892486333847,0.0025134270545095205],[-0.025542862713336945,0.023629359900951385,-0.018315715715289116,0.030503397807478905,-0.02796933986246586],[-0.010563192889094353,0.03575519472360611,0.02876686491072178,0.03415327146649361,0.040102310478687286],[0.07429283857345581,0.08438999205827713,-0.08879655599594116,-0.02377546951174736,-0.06106974184513092],[-0.008212106302380562,0.07912459969520569,-0.047045961022377014,0.08421247452497482,0.03568119555711746],[-0.015569645911455154,0.07637643814086914,-0.017567427828907967,0.09655869752168655,-0.09237029403448105],[-0.039146386086940765,-0.012539621442556381,-0.021558308973908424,0.08228681236505508,-0.0406419038772583]],[[0.04196075350046158,-0.04143364727497101,0.0489431768655777,-0.0845709890127182,0.055946070700883865],[0.037433333694934845,0.0035081403329968452,0.035829104483127594,0.008735337294638157,0.03340315818786621],[-0.07723229378461838,-0.0563533753156662,-0.0631290152668953,0.09618641436100006,-0.05520417541265488],[0.06877698749303818,-0.08143354952335358,-0.040944475680589676,0.06764089316129684,-0.07136470079421997],[-0.09466277807950974,-0.04326332360506058,0.06903532147407532,0.07295957207679749,-0.08986444026231766],[-0.03389498218894005,-0.06270389258861542,-0.03332432359457016,0.0338347926735878,-0.012666271068155766],[0.031685177236795425,-0.07588529586791992,-0.10099189728498459,0.048446472734212875,0.08552180975675583],[0.05173640698194504,0.06297919899225235,0.053635407239198685,-0.0769909918308258,0.055609360337257385],[0.042059652507305145,-0.07857179641723633,-0.05933713912963867,0.010820996016263962,-0.019614679738879204],[-0.06801296770572662,-0.06915545463562012,0.09917505085468292,0.05808734521269798,0.0727386474609375],[0.012311339378356934,-0.08422405272722244,-0.05754575878381729,0.04262295737862587,0.04078621417284012],[0.044570133090019226,0.04646335914731026,-0.0027395151555538177,-0.013784343376755714,0.06591577082872391],[0.0562484934926033,0.04461832717061043,0.011680034920573235,-0.08983275294303894,-0.09833931177854538],[0.02473421022295952,0.05740613117814064,-0.038075100630521774,0.06677290052175522,0.0037575867027044296],[-0.08753781765699387,-0.09030842781066895,-0.10232838988304138,0.00929793156683445,-0.09179258346557617],[-0.08609331399202347,0.05150916054844856,0.06798671185970306,0.08004451543092728,0.0999637171626091],[-0.07099058479070663,0.02009802684187889,0.026860564947128296,-0.04917040094733238,0.003567052073776722],[-0.07793546468019485,0.061069171875715256,-0.04202933982014656,-0.012209628708660603,-0.07037287205457687],[-0.03211892023682594,0.08304949104785919,0.06419934332370758,-0.07025861740112305,0.0015820044791325927],[0.08438719809055328,0.08115071058273315,0.01869932748377323,0.02726505883038044,0.06693745404481888]],[[-0.004847966134548187,-0.0026690748054534197,0.04395778104662895,-0.07758765667676926,0.07410779595375061],[-0.07398275285959244,0.06303871423006058,0.08630526810884476,0.07635745406150818,0.007145592011511326],[0.016263524070382118,-0.018743013963103294,0.09002111852169037,-0.04038080945611,-0.03541157394647598],[0.04912373796105385,-0.09515708684921265,-0.014050904661417007,-0.08856532722711563,-0.030036455020308495],[-0.08955592662096024,-0.054019343107938766,-0.02318793162703514,0.017913250252604485,-0.10124288499355316],[-0.055160392075777054,0.0453127920627594,-0.08398165553808212,-0.07812770456075668,0.046763792634010315],[0.06081655994057655,0.05102546140551567,-0.06078804284334183,-0.08264490962028503,0.05870320647954941],[-0.06399653851985931,0.04081267490983009,-0.06101541593670845,0.019504958763718605,-0.09772054105997086],[-0.07255201041698456,0.0556243434548378,-0.0036117425188422203,-0.09353332966566086,-0.09689070284366608],[-0.044831257313489914,0.028788939118385315,-0.045823801308870316,0.017375662922859192,-0.020767472684383392],[-0.021130474284291267,-0.0897691622376442,0.1018795296549797,-0.03691350296139717,-0.07310181856155396],[-0.07202840596437454,0.1045772135257721,-0.03572317957878113,0.02285970188677311,0.019309021532535553],[0.00875089317560196,0.06663268804550171,-0.026688488200306892,-0.08360633999109268,0.08770903199911118],[-0.05062437802553177,0.00041957912617363036,0.06442472338676453,0.04676487296819687,-0.08543293923139572],[0.02017272263765335,0.05204487591981888,0.08379533886909485,-0.025493662804365158,-0.025281284004449844],[-0.07465193420648575,0.0007093743770383298,-0.054849863052368164,0.04578595981001854,0.05589541420340538],[0.000506219279486686,-0.08884423971176147,-0.09068354219198227,0.027083689346909523,-0.09644296020269394],[0.030854275450110435,0.048881273716688156,0.036921046674251556,0.06936784088611603,0.048740919679403305],[0.0812595784664154,-0.09761412441730499,0.06288742274045944,0.023038405925035477,-0.022110598161816597],[0.050674453377723694,0.07154757529497147,0.07745149731636047,-0.026835309341549873,0.07495690882205963]],[[-0.008760779164731503,-0.05361206829547882,-0.007674986030906439,0.0744575709104538,0.07538837939500809],[-0.09060252457857132,0.018635571002960205,-0.09997528791427612,-0.10133342444896698,-0.08171859383583069],[0.09858561307191849,0.07680325210094452,-0.08608870208263397,0.06413768976926804,-0.05899282544851303],[0.07023978233337402,-0.014017251320183277,-0.03994263336062431,-0.0335761196911335,-0.05265748128294945],[0.02682916447520256,-0.05220261588692665,0.04305940866470337,0.04509242624044418,0.030425725504755974],[0.01347019337117672,-0.08629307895898819,-0.08602508157491684,-0.096043162047863,0.062482986599206924],[-0.014517921954393387,0.03148166090250015,0.043687086552381516,0.019015097990632057,-0.06049402803182602],[0.004854535683989525,-0.048010122030973434,0.02426530234515667,0.06804730743169785,-0.10388490557670593],[0.03572944924235344,-0.052455056458711624,0.00866026058793068,0.017680376768112183,0.00954357348382473],[0.003940535709261894,-0.05138259753584862,0.054542142897844315,-0.04386954382061958,0.04030447080731392],[-0.06833763420581818,0.0456838384270668,0.0188888069242239,-0.011820339597761631,0.038496509194374084],[0.00203706044703722,0.05485844612121582,0.014707868918776512,-0.03412030264735222,-0.06371480971574783],[-0.06295420974493027,0.06554756313562393,-0.0178664680570364,0.05657721310853958,-0.00510391965508461],[-0.09263934940099716,-0.05092443525791168,-0.0464266762137413,-0.07405348122119904,0.005498991813510656],[-0.042132556438446045,0.05824919790029526,-0.0308232381939888,-0.06391144543886185,0.07945539057254791],[0.0105972895398736,-0.0032825821544975042,0.015861129388213158,0.07029020041227341,0.08416503667831421],[-0.04943563789129257,0.07900937646627426,0.054175641387701035,-0.08083643764257431,0.045006562024354935],[-0.016577348113059998,-0.10510601848363876,-0.05244709551334381,-0.060725606977939606,0.10450731217861176],[-0.08921805769205093,0.031062442809343338,-0.07253926247358322,0.030620316043496132,-0.02907460741698742],[-0.070197694003582,0.007631657645106316,-0.036827005445957184,-0.06768883019685745,0.08871997147798538]],[[-0.024031490087509155,-0.08526525646448135,0.0604429617524147,0.03408270329236984,0.057412974536418915],[-0.032047566026449203,-0.05266899615526199,0.011788599193096161,-0.06647590547800064,0.045473646372556686],[0.026936732232570648,-0.0005721063353121281,0.07759913802146912,-0.09874024987220764,0.006242498755455017],[0.06597484648227692,0.06545863300561905,0.10297506302595139,-0.09272830933332443,-0.06400478631258011],[-0.07739412784576416,0.03525437414646149,0.0720243752002716,-0.015253701247274876,-0.05683320760726929],[-0.024684729054570198,0.04874147102236748,-0.054670486599206924,-0.0363343171775341,-0.06820271909236908],[-0.0027319504879415035,-0.04759085923433304,-0.02341325581073761,0.05016670376062393,0.07132044434547424],[-0.07443620264530182,0.06884288042783737,-0.08175498247146606,-0.05171886086463928,-0.024345671758055687],[0.027161624282598495,0.09483987838029861,0.10677832365036011,-0.08065000176429749,-0.07294964045286179],[0.09339328110218048,-0.06154809519648552,0.04857480525970459,0.052563149482011795,0.032622601836919785],[0.032198913395404816,-0.06597833335399628,-0.07818486541509628,-0.03850163146853447,-0.06222035735845566],[-0.07410550862550735,-0.08836290240287781,0.07933750748634338,-0.05036937817931175,-0.07689188420772552],[-0.0770803689956665,0.0013588028959929943,0.09851442277431488,0.0231785848736763,-0.07447081804275513],[0.06336474418640137,-0.06658882647752762,0.03983224183320999,0.02798210084438324,0.025710463523864746],[0.0856703370809555,0.07833567261695862,0.016491031274199486,0.059873998165130615,-0.09445356577634811],[0.06627774983644485,-0.09134706854820251,0.04796305671334267,0.0843467190861702,-0.05114731937646866],[0.03133217245340347,0.05163555592298508,0.006625794805586338,-0.01685682311654091,0.0942937359213829],[0.08267246931791306,-0.026442205533385277,0.06384847313165665,0.05593499913811684,0.06339044123888016],[-0.07922278344631195,-0.022632405161857605,-0.07754503935575485,0.09056509286165237,-0.09263504296541214],[-0.08995843678712845,0.03362765908241272,0.050579700618982315,0.08343333750963211,-0.011496680788695812]],[[0.029611431062221527,-0.06032855063676834,-0.07813093811273575,-0.008615316823124886,0.035582829266786575],[-0.05463612452149391,-0.08775823563337326,-0.00550977885723114,-0.09006804972887039,-0.05498570203781128],[0.06316295266151428,0.001089276745915413,-0.026036111637949944,-0.04426664859056473,-0.061048127710819244],[0.011317267082631588,-0.06514627486467361,-0.06915897130966187,-0.087640680372715,-0.04493345692753792],[-0.09950067102909088,-0.047149453312158585,0.0040851980447769165,-0.0756196677684784,0.08941402286291122],[0.06840825825929642,-8.571441867388785e-05,-0.0670720711350441,-0.042073920369148254,0.002988710766658187],[-0.05363008379936218,-0.07716171443462372,-0.035867203027009964,-0.03505409508943558,0.049564607441425323],[-0.09453966468572617,0.06644394248723984,-0.012513491325080395,-0.04023662209510803,-0.06552144885063171],[0.08351811021566391,-0.0026921529788523912,0.053797923028469086,-0.09888947010040283,-0.01946793496608734],[-0.02153569646179676,0.03533874452114105,-0.01822034828364849,0.09176777303218842,-0.04157281666994095],[0.09378901869058609,0.041618190705776215,-0.020706716924905777,0.048273488879203796,0.028435954824090004],[-0.0013615642674267292,-0.027808811515569687,0.059505645185709,-0.01677009090781212,0.021770788356661797],[-0.01763342320919037,0.05110982060432434,0.03948545083403587,-0.08946294337511063,-0.08200770616531372],[0.08498791605234146,0.020815042778849602,-0.010926531627774239,-0.040342673659324646,0.014968386851251125],[0.007750215008854866,-0.056028734892606735,-0.004011983517557383,0.050407227128744125,-0.08293396234512329],[0.012009219266474247,-0.0943174809217453,-0.010530793108046055,-0.03163645789027214,0.06839166581630707],[0.09448827058076859,-0.015581057406961918,0.07455357909202576,0.029262615367770195,0.08539748191833496],[0.09899308532476425,0.0504106730222702,0.036985598504543304,0.02510220743715763,-0.08820391446352005],[-0.09825079143047333,-0.09463847428560257,-0.06217159703373909,0.09674445539712906,0.0534190908074379],[-0.053743571043014526,-0.00041713431710377336,0.012296874076128006,0.04218927025794983,0.04981308802962303]],[[-0.043536294251680374,0.07663045078516006,-0.036058537662029266,0.08762655407190323,0.01592395268380642],[-0.036808792501688004,0.051288895308971405,-0.05188145861029625,0.08443409949541092,-0.029453955590724945],[0.04278632253408432,0.005734178703278303,-0.026893125846982002,0.06352946162223816,0.08378095179796219],[0.02847272902727127,0.08788993954658508,-0.08333270251750946,-0.06830810755491257,-0.09714508801698685],[0.018082506954669952,-0.1009732335805893,-0.04763432592153549,0.0043122172355651855,-0.03404194861650467],[0.07814239710569382,-0.03256870061159134,0.03901921212673187,-0.03988087177276611,-0.038025498390197754],[-0.007149915676563978,0.0304621122777462,0.009808068163692951,-0.07561907172203064,-0.04174543917179108],[-0.06637057662010193,0.010152551345527172,0.04495210200548172,0.08965910971164703,0.039383213967084885],[-0.023600079119205475,0.07427434623241425,-0.04317589849233627,-0.0697299912571907,-0.046453461050987244],[0.06479933112859726,0.09694381803274155,0.018186887726187706,-0.011118946596980095,-0.03579029440879822],[0.054727859795093536,-0.08741405606269836,-0.03232666105031967,-0.002430939581245184,0.07402161508798599],[0.08034022897481918,-0.04317774996161461,0.08664698898792267,-0.08461448550224304,0.01751452311873436],[-0.10039383172988892,0.004878749139606953,-0.040084343403577805,-0.06920050829648972,0.0818973109126091],[0.007349774241447449,0.09303918480873108,-0.07275988906621933,-0.05992441624403,-0.06508525460958481],[-0.027158575132489204,-0.03674372285604477,0.06011529266834259,0.03794809430837631,-0.07639767974615097],[0.021336715668439865,-0.07924408465623856,0.03351617231965065,0.004697098862379789,-0.06709738820791245],[0.10959778726100922,-0.03341946750879288,0.026810748502612114,0.10697785019874573,-0.031491369009017944],[-0.04926012083888054,0.08481516689062119,-0.06886930763721466,0.07686512172222137,0.02642248012125492],[-0.08462128788232803,0.06353936344385147,0.029818810522556305,0.08956354111433029,-0.019499897956848145],[0.0967995896935463,0.09409219026565552,-0.06702512502670288,0.004807803314179182,0.03853442519903183]],[[0.03505222499370575,-0.05706636235117912,-0.03221539780497551,-0.010791034437716007,0.026092227548360825],[-0.07785572856664658,-0.046716708689928055,-0.03876812011003494,-0.08139515668153763,-0.058499839156866074],[0.002870529890060425,0.006871338468044996,0.015681948512792587,0.0768338143825531,0.09285514056682587],[-0.07534094154834747,-0.04026634246110916,0.07929238677024841,0.06905681639909744,0.011500994674861431],[0.07056742161512375,0.05752474442124367,-0.03691224008798599,0.021569397300481796,0.06671343743801117],[-0.0751786157488823,0.05304168537259102,0.07466013729572296,0.05666873976588249,0.028560109436511993],[0.050481367856264114,-0.08140699565410614,-0.04824583977460861,0.026207558810710907,-0.09688533842563629],[0.09831161797046661,-0.007113245315849781,0.053302280604839325,-0.0368812270462513,0.048835303634405136],[-0.0763361006975174,-0.08060699701309204,-0.03235465660691261,-0.03475191816687584,0.054298996925354004],[0.07584983110427856,-0.06859563291072845,-0.09584466367959976,0.07129725068807602,-0.058885108679533005],[0.031900402158498764,-0.030023153871297836,-0.005865728948265314,-0.08442836999893188,0.04990993067622185],[-0.034768711775541306,-0.06773218512535095,0.04082326591014862,-0.07726060599088669,0.014154026284813881],[0.04536999762058258,-0.06434475630521774,-0.07406094670295715,0.060897815972566605,-0.05994401127099991],[-0.08523282408714294,0.013491370715200901,0.03279471769928932,-0.0046075088903307915,0.03928849473595619],[-0.08985834568738937,-0.047164399176836014,-0.09336775541305542,0.005793294403702021,-0.013947096653282642],[-0.03090742789208889,0.0748136043548584,0.02633485570549965,0.05905706807971001,-0.0006820351118221879],[-0.038463763892650604,-0.029652822762727737,0.07814572006464005,-0.07915741950273514,-0.0016937722684815526],[0.08558990806341171,0.04017159342765808,-0.07354693859815598,-0.08203895390033722,-0.043667472898960114],[-0.0009820874547585845,-0.04350797459483147,0.10338018834590912,-0.08979302644729614,-0.010821591131389141],[0.013003822416067123,0.01341367419809103,0.04175106808543205,-0.010805140249431133,-0.017304565757513046]],[[-0.057796139270067215,-0.09780081361532211,0.007671073079109192,-0.0607350654900074,0.01396242342889309],[0.07803048193454742,0.048593856394290924,-0.01612849533557892,-0.050088394433259964,0.05065291374921799],[0.08596675843000412,0.016203541308641434,-0.045630794018507004,-0.06448152661323547,0.023238521069288254],[0.016678715124726295,-0.018171828240156174,-0.06123156473040581,0.01906951516866684,-0.039855003356933594],[-0.07067906111478806,-0.027344616129994392,0.0774613693356514,0.06333945691585541,-0.028894303366541862],[0.0027955167461186647,-0.036050084978342056,-0.059807803481817245,-0.00016419097664766014,0.03423454239964485],[0.005254073068499565,0.0787544995546341,0.010119217447936535,-0.04539532586932182,0.002773577580228448],[0.017650889232754707,-0.05955962464213371,-0.09990985691547394,0.0034376089461147785,-0.08397016674280167],[0.04634985700249672,0.07600732147693634,0.04523026943206787,-0.044180385768413544,0.06433600187301636],[-0.05451623350381851,-0.08313535153865814,0.05745616555213928,0.0017348516266793013,-0.05543743073940277],[-0.0221006628125906,-0.02650066278874874,-0.0539235956966877,-0.032750435173511505,-0.022460324689745903],[-0.07813887298107147,-0.09496688097715378,-0.06355596333742142,0.018434777855873108,0.05690694972872734],[-0.03362239897251129,0.04777521640062332,0.041717540472745895,-0.09237777441740036,-0.10352243483066559],[0.0810009241104126,0.011143156327307224,-0.06968800723552704,0.0817471444606781,0.06162227690219879],[-0.09717302769422531,0.05949324741959572,0.0004196479276288301,0.032135020941495895,0.03249679505825043],[-0.09012890607118607,-0.0330258347094059,0.09099922329187393,0.05876148119568825,0.0746246725320816],[-0.03750508651137352,0.0014193957904353738,0.0023617958649992943,0.053034622222185135,-0.034615855664014816],[-0.09335953742265701,0.08285465836524963,0.10260976850986481,-0.09459511190652847,-0.08024901151657104],[-0.044154293835163116,0.06205635890364647,-0.0635676309466362,-0.0889064148068428,-0.08441083878278732],[0.08273854106664658,-0.08197936415672302,0.008102486841380596,0.03446085751056671,-0.08872921764850616]],[[0.05513032153248787,0.05973545089364052,0.07616373896598816,0.07999178767204285,-0.04317132383584976],[0.08371536433696747,0.07149583101272583,0.06739825010299683,0.03471319004893303,0.06898379325866699],[-0.09898676723241806,-0.0030978452414274216,0.0187839362770319,-0.031747374683618546,-0.07027925550937653],[0.051618047058582306,-0.03581159561872482,-0.03747453913092613,0.06363525241613388,-0.05422100052237511],[0.08753034472465515,0.043530356138944626,0.04135645925998688,-0.050486404448747635,0.03863245248794556],[0.09874916821718216,0.01202900055795908,-0.10446163266897202,0.028047140687704086,0.06163143739104271],[0.0026828115805983543,0.06506932526826859,0.00837275106459856,-0.09497535973787308,0.05684686824679375],[-0.02266562730073929,0.10626475512981415,-0.07721083611249924,0.04303103685379028,-0.06038236618041992],[-0.020886339247226715,0.0029901498928666115,0.026565704494714737,0.0037315094377845526,-0.056288160383701324],[-0.0036705131642520428,0.0915990024805069,0.04364043101668358,0.06768064945936203,-0.08342724293470383],[-0.06721436977386475,-0.05351782590150833,-0.08743016421794891,-0.026801826432347298,-0.07614091783761978],[-0.031182704493403435,0.08520269393920898,-0.01682461053133011,0.031550079584121704,0.018891623243689537],[0.07601168751716614,-0.03585686907172203,-0.002548802178353071,0.047196581959724426,-0.06737254559993744],[-0.07685885578393936,-0.01950116455554962,0.024265548214316368,0.06276936829090118,0.00028782914159819484],[-0.058043111115694046,-0.023695938289165497,-0.020996497943997383,-0.09190165251493454,0.004186272155493498],[0.009860479272902012,0.0017321004997938871,-0.07231239974498749,0.0911417305469513,0.010537324473261833],[0.09179690480232239,0.05421409755945206,-0.08261141180992126,0.025082554668188095,-0.030689595267176628],[-0.02117379941046238,0.08901497721672058,-0.016899757087230682,0.06577958911657333,0.020159799605607986],[-0.07243083417415619,-0.014713818207383156,-0.021405953913927078,0.035728130489587784,-0.052229754626750946],[-0.029984161257743835,0.0654018223285675,-0.07044355571269989,0.038526810705661774,0.07465517520904541]],[[0.05493190884590149,-0.06369559466838837,0.06041266769170761,-0.07523372769355774,0.03120776079595089],[-0.06312666088342667,0.05244504287838936,0.06806402653455734,-0.0304705947637558,0.0426955409348011],[-0.07538280636072159,0.02135302685201168,0.0001339457230642438,-0.08428884297609329,0.03364676982164383],[0.02307267114520073,-0.05654117092490196,0.0773228257894516,-0.03021317906677723,0.08218071609735489],[0.005678904242813587,-0.0011877326760441065,-0.05921358987689018,0.030055614188313484,-0.05781383439898491],[0.04734398052096367,-0.06154293566942215,-0.10468123108148575,0.035623908042907715,-0.04771777242422104],[0.009191502816975117,0.006113985553383827,-0.045711591839790344,-0.03177933022379875,0.011552519164979458],[-0.06996991485357285,-0.03701027110219002,0.09000445902347565,0.08633816987276077,-0.07940123230218887],[0.04543871432542801,0.07061652839183807,0.03705389052629471,0.06119978800415993,0.03241341933608055],[0.008930339477956295,-0.04468889534473419,0.04628497362136841,0.059175387024879456,-0.07330695539712906],[-0.05175387114286423,0.01273884903639555,0.06591206043958664,0.0965094268321991,-0.08152658492326736],[0.029516030102968216,-0.012857656925916672,0.08433949202299118,-0.020319124683737755,-0.017573878169059753],[0.030202742666006088,-0.06001735478639603,-0.06859887391328812,0.04307834804058075,-0.05400414392352104],[0.01856221631169319,0.06399859488010406,-0.0441935658454895,-0.05466833710670471,0.06812504678964615],[0.0890759527683258,0.06684578210115433,-0.054210443049669266,-0.07914445549249649,-0.06609024852514267],[-0.0761033147573471,-0.029641082510352135,0.10640319436788559,0.02242070622742176,0.01375609077513218],[-0.060494862496852875,-0.07054466009140015,0.05262821167707443,-0.09920813888311386,-0.10124508291482925],[-0.05100444704294205,-0.0984223410487175,0.020608149468898773,0.022168178111314774,-0.05096684396266937],[-0.06545501202344894,-0.016982976347208023,-0.03876837342977524,-0.058401476591825485,0.07992273569107056],[-0.09094864875078201,0.08506835252046585,-0.0642404705286026,0.0373893566429615,-0.09042085707187653]]],"conv1.bn.weight":[1.0051149129867554,1.0037089586257935,0.998540461063385,1.0081149339675903,1.002551794052124,0.9963613152503967,1.0027990341186523,0.99613356590271,0.9965484738349915,1.0103428363800049,0.9925652742385864,1.0001970529556274,1.0002050399780273,0.9949995279312134,0.99628746509552,0.9996854662895203,1.0037485361099243,1.0012463331222534,0.9961622953414917,1.0079681873321533,1.0046244859695435,1.0025253295898438,0.9946568012237549,1.0102696418762207,0.9972823858261108,1.009534239768982,0.99662184715271,0.9950883388519287,0.9938543438911438,0.992746889591217,0.9929167628288269,0.9932791590690613],"conv1.bn.bias":[0.005565830506384373,0.006754397414624691,0.0018352351617068052,0.007703431416302919,0.004491118714213371,-0.0015392600325867534,0.007254224736243486,-0.004657685291022062,-0.005184694658964872,0.010323306545615196,-0.004654898773878813,-0.007547722663730383,-0.0032673575915396214,-0.004774021916091442,-0.006179689429700375,-9.109079110203311e-05,0.0031328084878623486,0.0014430227456614375,-0.00840733852237463,0.008120767772197723,0.0045453510247170925,-0.0014175139367580414,-0.007555476855486631,-0.0001353240804746747,0.0065526883117854595,0.008885417133569717,-0.004104552324861288,-0.007357460912317038,-0.005242603365331888,-0.004112766124308109,-0.0033748659770935774,-0.006803757511079311],"conv1.bn.running_mean":[0.028024964034557343,0.012753465212881565,0.02517639473080635,0.006595738232135773,0.027462996542453766,-0.031737349927425385,-0.02262452431023121,-0.003955171909183264,0.014397086575627327,0.026506569236516953,0.043309636414051056,0.04045834764838219,-0.015916254371404648,0.01412009634077549,-0.03590545058250427,0.022607501596212387,0.12172695994377136,-0.05617932230234146,0.019095951691269875,-0.05056816339492798,-0.03216364607214928,-0.015548305585980415,0.06248033791780472,0.008808630518615246,-0.011220084503293037,-0.043807025998830795,0.042936477810144424,0.0034376876428723335,-0.01873551495373249,-0.02850303053855896,-0.02552012726664543,-0.03813581168651581],"conv1.bn.running_var":[0.48517513275146484,0.5367841124534607,0.5060393214225769,0.4444703161716461,0.5781777501106262,0.45485490560531616,0.6372436881065369,0.571150004863739,0.4287644624710083,0.4892013669013977,0.46913382411003113,0.4502720236778259,0.525933563709259,0.4574800431728363,0.4807489216327667,0.5467451810836792,0.6410186886787415,0.8999516367912292,0.539238691329956,0.6478851437568665,0.5009824633598328,0.4297564625740051,0.5524246692657471,0.45523080229759216,0.4485238492488861,0.5161625146865845,0.5300366878509521,0.46371135115623474,0.42920222878456116,0.5069061517715454,0.6108638048171997,0.49705249071121216],"res1_1.conv1.weight":[[[0.0528980977833271,0.04673106223344803,0.013046913780272007],[0.05864047631621361,0.06049463525414467,-0.07609597593545914],[0.004491711966693401,0.01585821434855461,-0.01867109164595604],[-0.008157848380506039,-0.09958230704069138,0.043018538504838943],[0.09679488837718964,0.009453186765313148,-0.06258422136306763],[0.09044656157493591,-0.05880755931138992,0.02533864602446556],[0.008608882315456867,-0.010539242066442966,-0.06468652933835983],[0.09273949265480042,-0.0018308025319129229,-0.030756661668419838],[0.048234887421131134,0.0011300421319901943,0.07432620972394943],[-0.02491224743425846,0.06925474852323532,-0.0923229306936264],[0.0158376507461071,0.010912428610026836,-0.032227933406829834],[-0.0038347470108419657,0.09352264553308487,0.011023573577404022],[-0.08653494715690613,0.04477449879050255,-0.0574847087264061],[-0.033874038606882095,-0.002692742273211479,-0.0773957222700119],[-0.09126875549554825,-0.09639086574316025,-0.015129717998206615],[0.0012740943348035216,0.03956190124154091,0.09621300548315048],[0.10322567820549011,-0.03308480978012085,0.052672211080789566],[0.014884993433952332,0.0883496105670929,0.08406379073858261],[-0.027435295283794403,0.010220959782600403,-0.09242509305477142],[-0.002140517346560955,0.026172956451773643,0.032384242862463],[-0.03656264394521713,-0.00754897017031908,-0.02601219154894352],[0.004707580432295799,0.03668636828660965,-0.03998839855194092],[-0.054020509123802185,0.0677943304181099,-0.08947328478097916],[0.0350043922662735,-0.07452940195798874,0.004793732427060604],[0.09218007326126099,-0.07278743386268616,0.03992878273129463],[0.05087190121412277,-0.06728675961494446,-0.06221030279994011],[-0.07995931804180145,-0.04782959818840027,-0.062184542417526245],[0.002146359533071518,-0.0025081729982048273,0.014317082241177559],[-0.05182771012187004,-0.06523787975311279,-0.05786788836121559],[0.02235846221446991,0.017877571284770966,-0.010189702734351158],[0.04292049631476402,-0.014720499515533447,0.09444310516119003],[-0.08266256749629974,-0.06901958584785461,0.023195937275886536]],[[-0.06121145933866501,-0.061819128692150116,-0.0010600876994431019],[-0.05233174189925194,-0.04297507181763649,0.00014674948761239648],[0.028309132903814316,0.014531314373016357,-0.1001456007361412],[-0.022856872528791428,0.08957156538963318,-0.00041408458491787314],[0.03473423048853874,-0.061488810926675797,-0.02002006582915783],[0.09796150028705597,0.03148293495178223,0.06683328747749329],[-0.08810807019472122,-0.037091195583343506,-0.050596412271261215],[-0.05866708606481552,0.06666956096887589,0.02344456873834133],[0.0478433221578598,-0.05358755588531494,0.034282878041267395],[0.008076779544353485,-0.033843010663986206,-0.04239923134446144],[0.0871395543217659,0.0052845897153019905,0.07313664257526398],[-0.09982357174158096,-0.06877916306257248,0.008214016444981098],[0.04739703610539436,-0.0525037907063961,0.08175845444202423],[0.0677342489361763,-0.09528667479753494,-0.0919671282172203],[0.056467730551958084,0.10481616109609604,0.07301332801580429],[-0.08897654712200165,0.04878505319356918,0.03838582709431648],[-0.06411179155111313,0.09514732658863068,-0.013507004827260971],[-0.05452381819486618,0.06084217503666878,0.05743444338440895],[0.032014016062021255,0.07885286957025528,-0.028209054842591286],[0.08916129171848297,-0.008448988199234009,0.08495486527681351],[-0.10043445974588394,0.04004780575633049,0.07663770020008087],[0.043995678424835205,0.09494716674089432,0.020976196974515915],[-0.008757817558944225,-0.0635443702340126,0.042367707937955856],[0.0843295231461525,0.037734296172857285,0.02222769521176815],[0.010808355174958706,-0.08649706840515137,-0.03877951577305794],[0.0013130989391356707,-0.016575917601585388,0.027324922382831573],[0.07608000189065933,0.004723055753856897,-0.0697346180677414],[0.050734780728816986,0.04835192859172821,-0.017712116241455078],[0.07749539613723755,0.040634747594594955,0.07409819215536118],[0.021383605897426605,0.05982871726155281,-0.05928361043334007],[-0.016436206176877022,-0.08221130818128586,-0.036881040781736374],[-0.08959148079156876,0.048288505524396896,0.08255251497030258]],[[-0.0002141857403330505,-0.05974108725786209,0.01171488780528307],[-0.03816019371151924,0.10486448556184769,0.08430972695350647],[0.08897951990365982,0.032019682228565216,-0.016039201989769936],[-0.0817941352725029,-0.0020212840754538774,-0.05389810726046562],[0.01704968325793743,-0.011103134602308273,0.05884499475359917],[0.05332395061850548,-0.07828798145055771,-0.10305710881948471],[0.06188977137207985,0.019956352189183235,-0.047028038650751114],[0.08074673265218735,0.0012514095287770033,-0.09211695194244385],[0.037641528993844986,-0.024427343159914017,-0.049554236233234406],[-0.0003484648186713457,-0.01202258002012968,0.060802359133958817],[0.08312292397022247,-0.08799682557582855,0.08646730333566666],[0.04853689298033714,0.04781801253557205,0.07991348206996918],[-0.04143952950835228,-0.02300611510872841,0.060545362532138824],[0.06915179640054703,0.00843324139714241,0.0460614338517189],[0.0953928604722023,0.010373360477387905,-0.020515279844403267],[0.04696837440133095,0.047833800315856934,-0.09602727741003036],[-0.028815384954214096,0.10328781604766846,0.04722948744893074],[-0.06654994189739227,-0.0584159679710865,-0.0794488787651062],[-0.0659368634223938,-0.02516976371407509,0.07511511445045471],[-0.07273262739181519,-0.04306209832429886,-0.08781981468200684],[-0.007275896612554789,0.022895686328411102,-0.024598244577646255],[0.038951534777879715,-0.04343967139720917,0.09341496974229813],[-0.03896430507302284,0.03697575256228447,-0.029057268053293228],[-0.02512964978814125,-0.0017722233897075057,-0.02736065723001957],[-0.08136042952537537,0.06611767411231995,-0.02147689089179039],[0.06472881138324738,0.011381358839571476,-0.020391050726175308],[-0.025738168507814407,0.06366077810525894,-0.03755033388733864],[-0.05137552320957184,0.07232092320919037,0.05773787200450897],[0.08415412157773972,-0.018768083304166794,0.09077383577823639],[-0.008294090628623962,-0.07214272022247314,0.09729108214378357],[0.004722437355667353,-0.053769685328006744,-0.03248194232583046],[0.06960754096508026,0.07971309125423431,-0.01277958508580923]],[[0.031685128808021545,-0.01987089030444622,0.0019899928011000156],[-0.10184177756309509,0.037804003804922104,0.02519228681921959],[-0.03818702697753906,-0.0835321918129921,0.035538200289011],[-0.07951731234788895,-0.09835813194513321,-0.05640512704849243],[0.038213010877370834,0.025182917714118958,0.00847170315682888],[0.015082755126059055,-0.034428492188453674,-0.07996964454650879],[-0.08412983268499374,0.06110207363963127,0.005793590564280748],[-0.04850112646818161,-0.09185214340686798,0.10283883661031723],[0.002284350572153926,-0.0673532709479332,0.06837473064661026],[0.09780438989400864,0.0052283271215856075,-0.048343442380428314],[0.0969773381948471,0.06937315315008163,0.019914811477065086],[0.01168634183704853,0.06409435719251633,0.06779345870018005],[-0.03835829719901085,0.07463866472244263,0.041883375495672226],[-0.038538821041584015,0.05757424980401993,-0.10413922369480133],[0.04239899665117264,-0.01844109036028385,-0.021575652062892914],[0.061241451650857925,-0.018015841022133827,0.053078025579452515],[0.038310643285512924,-0.02907770499587059,0.004359634593129158],[0.03187950700521469,0.09489273279905319,-0.019876835867762566],[-0.018372803926467896,-0.03623994067311287,0.007548709399998188],[0.03141551464796066,-0.04243108257651329,-0.004582608118653297],[-0.014012892730534077,-0.01920098066329956,-0.07200653105974197],[0.06604914367198944,-0.0559249222278595,-0.06335394829511642],[-0.082160584628582,0.0029043741524219513,0.00605729129165411],[0.009860353544354439,-0.08254918456077576,0.024261539801955223],[-0.08881522715091705,-0.07723277807235718,0.009002631530165672],[-0.03714791685342789,-0.08536504954099655,0.0013993370812386274],[-0.015216222032904625,0.008594051003456116,0.03380278870463371],[-0.10227123647928238,0.09676610678434372,-0.06076067313551903],[0.04117276519536972,-0.08102741092443466,0.05847133696079254],[0.09406689554452896,-0.062300603836774826,-0.06997780501842499],[0.07590783387422562,0.035193730145692825,-0.0015588777605444193],[-0.06861647218465805,0.06789030134677887,0.04716119170188904]],[[-0.018627118319272995,-0.013675983063876629,-0.029984356835484505],[0.05962318181991577,0.02032458409667015,-0.08557058125734329],[-0.025666456669569016,-0.07400272786617279,0.022646870464086533],[-0.02738717757165432,0.08476778119802475,0.03655809164047241],[-0.08721033483743668,-0.10144221782684326,0.09217870235443115],[-0.05431291088461876,-0.060239069163799286,-0.018789159134030342],[-0.06273983418941498,0.008248722180724144,-0.0872419998049736],[-0.10160648077726364,-0.09664320945739746,-0.09308493137359619],[0.03378210589289665,-0.08790864795446396,0.07407119870185852],[0.016924085095524788,0.049766190350055695,-0.09401027858257294],[0.020808227360248566,-0.008681266568601131,-0.0632501095533371],[0.0038155396468937397,-0.06392168253660202,-0.028632236644625664],[-0.060390859842300415,-0.010321286506950855,0.04792660102248192],[-0.06904366612434387,0.05085357651114464,-0.004834339022636414],[-0.045426011085510254,0.05577351897954941,-0.05762505903840065],[0.03395019844174385,0.019433632493019104,0.05482226237654686],[-0.034113992005586624,-0.05219447985291481,-0.014676565304398537],[0.008413724601268768,0.03998516872525215,0.09335586428642273],[0.01903068646788597,0.019399525597691536,-0.03308602049946785],[-0.01517043448984623,-0.028127236291766167,-0.07484039664268494],[-0.06852542608976364,0.035845570266246796,-0.0399027056992054],[-0.05743362754583359,-0.01769864745438099,0.06340844184160233],[0.05980967730283737,-0.056264057755470276,0.04986099526286125],[0.05056648328900337,-0.09509943425655365,0.011807489208877087],[0.001207477878779173,0.047400228679180145,0.07192462682723999],[0.05950599163770676,0.07660551369190216,-0.055597614496946335],[-0.032132893800735474,-0.005166454706341028,-0.00565564539283514],[-0.06255021691322327,0.04211822524666786,0.062069617211818695],[0.030058886855840683,0.005692979786545038,-0.008076545782387257],[0.08139180392026901,-0.06469999998807907,-0.10002665966749191],[-0.03865719959139824,0.08982337266206741,0.09347818791866302],[0.043924156576395035,0.047598645091056824,0.004273661412298679]],[[0.10786537081003189,0.07577703148126602,-0.03855335712432861],[-0.05509272217750549,-0.08554413169622421,-0.0913538858294487],[-0.037024665623903275,-0.02703559771180153,0.1002185046672821],[0.08439011871814728,-0.02711312286555767,0.08895150572061539],[-0.05258876457810402,-0.0336773656308651,-0.012525612488389015],[-0.012765523977577686,-0.08034692704677582,-0.014311369508504868],[0.02130776457488537,0.05823683366179466,-0.07108349353075027],[-0.018059588968753815,-0.019040707498788834,0.03147052600979805],[-0.04012664780020714,-0.09611058235168457,0.021606983616948128],[-0.04450578615069389,0.0010206456063315272,0.08136012405157089],[-0.05541008338332176,0.09403654932975769,-0.011866217479109764],[-0.049528591334819794,0.09851717203855515,-0.02970975637435913],[0.00045289259287528694,-0.0011918706586584449,0.03242360055446625],[-0.07946471869945526,0.05219721794128418,-0.05934026837348938],[0.0614386685192585,0.07579043507575989,-0.06603166460990906],[-0.001601919997483492,-0.05398832634091377,-0.027816258370876312],[0.010743697173893452,0.0010725834872573614,-0.010700591839849949],[-0.044429875910282135,-0.03246372938156128,0.024823764339089394],[-0.06402093917131424,-0.08337189257144928,-0.018290851265192032],[0.06749463826417923,0.012881155125796795,0.07310616225004196],[0.02233436517417431,-0.043222829699516296,-0.06225034222006798],[-0.013364057056605816,0.031178215518593788,0.06984870135784149],[0.036329641938209534,0.04215637594461441,0.009974916465580463],[-0.0188676156103611,0.02562866546213627,0.04803338274359703],[0.07398837059736252,0.04655340313911438,0.050334632396698],[-0.04000938683748245,-0.026925669983029366,0.06706712394952774],[-0.06530377268791199,-0.0768735483288765,0.023236975073814392],[-0.04133870080113411,-0.033452678471803665,-0.07058877497911453],[-0.09102953225374222,-0.08476997911930084,0.04600882902741432],[0.06668137013912201,0.022129906341433525,-0.06311928480863571],[-0.0623660683631897,0.09770140051841736,-0.008275903761386871],[-0.0824296623468399,0.0504215843975544,0.09798333793878555]],[[0.10624531656503677,0.06728261709213257,-0.03699922561645508],[-0.059752754867076874,-0.06875402480363846,-0.03450949490070343],[-0.08297879248857498,-0.03261225298047066,-0.009086393751204014],[-0.0964655876159668,-0.0665322095155716,0.002273505786433816],[-0.046788621693849564,0.02180442214012146,-0.04693758860230446],[-0.01709626615047455,-0.08095171302556992,0.06995677947998047],[0.026873601600527763,0.0015023485757410526,-0.08027541637420654],[-0.009471554309129715,-0.02571006491780281,-0.0028924134094268084],[0.04682213068008423,-0.0734940692782402,0.022212883457541466],[-0.06828457862138748,-0.08623496443033218,0.09350369870662689],[0.03280702605843544,0.037387359887361526,0.030379611998796463],[-0.036087311804294586,0.033946555107831955,-0.02577887661755085],[0.004413191694766283,-0.06127399578690529,0.005926340818405151],[0.08035169541835785,0.08856344223022461,0.06735101342201233],[-0.07739482820034027,-0.02759619615972042,-0.09048829972743988],[-0.06161017715930939,0.04306241124868393,-0.05482388287782669],[-0.0483693853020668,-0.0727081149816513,0.07078930735588074],[-0.039571236819028854,-0.08742102980613708,-0.014608042314648628],[-0.08175637573003769,-0.057880714535713196,0.09915531426668167],[0.08632561564445496,-0.04494562745094299,-0.08879546821117401],[0.026112401857972145,0.0319572389125824,0.054904986172914505],[0.01242890115827322,-0.07073388248682022,0.07283709943294525],[0.083279550075531,0.0398598238825798,0.034465622156858444],[-0.08431192487478256,0.05064672604203224,0.08959974348545074],[0.093252994120121,-0.021138116717338562,0.030285315588116646],[-0.01698251999914646,0.07547182589769363,-0.04026900231838226],[0.010135411284863949,-0.09662465751171112,-0.09114427119493484],[0.09974680095911026,0.04409634321928024,-0.024927981197834015],[-0.07129289209842682,0.018647687509655952,0.07063719630241394],[-0.019147392362356186,0.09285477548837662,0.026451995596289635],[0.06386809051036835,0.06268966943025589,0.09549737721681595],[0.06208140775561333,-0.04986696317791939,0.06514305621385574]],[[-0.009014224633574486,-0.06978034228086472,0.06202497333288193],[0.025498166680336,0.08620046079158783,0.05284585431218147],[0.057240188121795654,0.021402530372142792,-0.08442927896976471],[5.157763371244073e-05,0.09466361254453659,-0.005642359144985676],[0.011686372570693493,-0.010633972473442554,0.05023437738418579],[-0.05856898054480553,-0.09520937502384186,0.09578464925289154],[0.040950361639261246,-0.10439757257699966,0.06776394695043564],[0.004339070525020361,-0.026613084599375725,-0.034044913947582245],[0.013609912246465683,-0.006845133379101753,0.052384186536073685],[-0.01366458646953106,0.07234925776720047,0.06244301795959473],[-0.038787271827459335,0.02310347743332386,0.016496527940034866],[-0.044433288276195526,-0.05379896238446236,-0.09151358902454376],[-0.07721969485282898,0.07310964912176132,-0.0008479520911350846],[-0.035805922001600266,-0.004940313287079334,0.09223957359790802],[0.030104050412774086,-0.09786377847194672,0.02607656456530094],[0.10444415360689163,0.06692462414503098,0.05669849365949631],[0.055110495537519455,-0.07259536534547806,-0.05146130174398422],[-0.07578487694263458,-0.011434279382228851,0.055157970637083054],[0.01941078156232834,0.031337130814790726,-0.05664627626538277],[0.025662537664175034,0.021625924855470657,0.011731677688658237],[0.022151170298457146,0.004897054750472307,-0.042982593178749084],[0.010596509091556072,0.056370269507169724,0.06530531495809555],[0.04390226677060127,0.0183439701795578,-0.04003867506980896],[0.07083607465028763,-0.0721411257982254,-0.05950850993394852],[0.08849634230136871,0.016991833224892616,0.0015842004213482141],[0.007337297312915325,0.005827384069561958,-0.056844379752874374],[0.0771453008055687,0.03611750528216362,0.08061594516038895],[0.059515610337257385,-0.01987897790968418,-0.013269986025989056],[0.01608709804713726,0.08348091691732407,0.03317432850599289],[0.08868676424026489,0.09334596246480942,-0.06999395042657852],[-0.09795495867729187,0.04707501456141472,-0.05367756262421608],[-0.006694904062896967,-0.017786221578717232,-0.01275152713060379]],[[0.102048359811306,0.03887154906988144,0.080197274684906],[0.05604153499007225,-0.08237955719232559,0.07496030628681183],[0.05484403669834137,-0.06153487041592598,-0.06278140842914581],[0.025054533034563065,-0.09599378705024719,-0.09282981604337692],[-0.08403478562831879,-0.0932074710726738,0.011842400766909122],[0.02710016816854477,-0.005051466170698404,-0.0865405797958374],[-0.10095740854740143,-0.021786117926239967,0.0654359683394432],[0.039833806455135345,0.07197029143571854,-0.03292403370141983],[0.051433492451906204,-0.01248664315789938,0.08770614117383957],[0.021337410435080528,0.0923670157790184,-0.00559950340539217],[0.07329299300909042,-0.0817437469959259,-0.028961345553398132],[-0.046137988567352295,-0.020383741706609726,0.046623554080724716],[0.08235229551792145,0.005077891517430544,-0.06689511239528656],[-0.03461813926696777,-0.08191710710525513,-0.04831983149051666],[-0.08121319860219955,0.09496133774518967,0.07749995589256287],[0.04415582865476608,-0.051703836768865585,0.07896880060434341],[-0.06370480358600616,-0.00083647680003196,0.09843090921640396],[-0.05797288194298744,-0.06066718325018883,-0.08717035502195358],[-0.025243017822504044,0.08805305510759354,-0.008221879601478577],[-0.04439740255475044,0.061206717044115067,0.06130418926477432],[0.03913730010390282,-0.03571544215083122,-0.06710109859704971],[0.0062852418050169945,-0.013241017237305641,0.09889145940542221],[0.02083359658718109,0.004998368211090565,-0.09018401056528091],[-0.09197038412094116,0.0418354831635952,-0.08375964313745499],[-0.08830186724662781,0.004402791615575552,0.08901995420455933],[0.10281095653772354,-0.05962700769305229,-0.08203975856304169],[0.03706825524568558,-0.07933016866445541,-0.05167299509048462],[-0.06952240318059921,0.07618747651576996,0.08322570472955704],[-0.0615827813744545,0.012162907049059868,0.10126426070928574],[0.07327944785356522,-0.05730673670768738,0.03407733514904976],[-0.027132855728268623,-0.07432947307825089,-0.05290630832314491],[-0.014212996698915958,-0.0035644560120999813,0.019449254497885704]],[[-0.029173150658607483,0.024646073579788208,0.09636332094669342],[0.06515974551439285,0.05470426008105278,-0.06617067754268646],[0.07103653252124786,-0.01307983510196209,-0.029491301625967026],[0.08208977431058884,0.015105102211236954,-0.10015071928501129],[-0.015582423657178879,0.05902919918298721,-0.07435159385204315],[0.08473233133554459,0.08826327323913574,0.05915204435586929],[0.022892117500305176,0.0379827544093132,-0.01859069988131523],[-0.050375889986753464,0.0909666046500206,-0.021562980487942696],[-0.04392407462000847,-0.029385797679424286,-0.10713304579257965],[0.07524985820055008,0.016817886382341385,0.10413654148578644],[0.08987080305814743,0.03163269907236099,-0.0705408975481987],[0.0883006602525711,0.09182453155517578,0.0003459157596807927],[-0.05864650383591652,-0.04121645539999008,-0.020399950444698334],[0.028330231085419655,0.05650155618786812,-0.08246218413114548],[-0.08476701378822327,-0.03282778710126877,0.061783481389284134],[-0.012020977213978767,0.00984581746160984,0.05978888273239136],[0.05823082476854324,0.10454513132572174,-0.017522761598229408],[0.004721520468592644,0.0043036071583628654,0.04015669599175453],[-0.009343606419861317,0.04960054159164429,-0.034189458936452866],[-0.07007753103971481,0.014658594503998756,-0.044855888932943344],[-0.0056969947181642056,0.011806941591203213,-0.00743870111182332],[-0.08933715522289276,0.07309678196907043,-0.06236002966761589],[0.03521617501974106,-0.0933118611574173,-0.028537729755043983],[0.05467156693339348,-0.0478193424642086,0.009739724919199944],[-0.0380827896296978,-0.08172961324453354,-0.002738252514973283],[-0.02603144757449627,-0.01468728855252266,-0.1053229495882988],[0.03231789916753769,0.051754895597696304,0.02192159928381443],[-0.09390449523925781,-0.04567825421690941,0.01830403506755829],[-0.01665106974542141,-0.06347031146287918,-0.07780075073242188],[-0.031633831560611725,0.009582455269992352,0.019491996616125107],[0.07059371471405029,-0.07876646518707275,0.022489525377750397],[0.0417768731713295,0.008985722437500954,-0.06613962352275848]],[[0.052895158529281616,0.025220099836587906,0.03300318494439125],[-0.030223071575164795,-0.022743558511137962,0.041598837822675705],[-0.0026821987703442574,0.0428345650434494,-0.03477793186903],[0.021061617881059647,-0.0027483664453029633,-0.018903391435742378],[-0.07435057312250137,0.0592658556997776,0.07968583703041077],[0.03161877021193504,-0.10419686883687973,-0.06830528378486633],[-0.07831303030252457,0.06710490584373474,-0.08197032660245895],[0.02784259244799614,-0.033420417457818985,0.008955534547567368],[-0.022195592522621155,0.1013205274939537,-0.0751129537820816],[-0.018318187445402145,0.07294641435146332,0.011825264431536198],[-0.023323561996221542,0.02178460918366909,0.05789797753095627],[0.06877678632736206,0.07253663241863251,0.1097240224480629],[-0.043413951992988586,0.05070662871003151,0.03149765729904175],[0.011837488040328026,-0.010589339770376682,0.000909272872377187],[0.023038728162646294,-0.09437032043933868,0.021557996049523354],[-0.05445867404341698,0.052137795835733414,-0.05104219913482666],[-0.02071942389011383,-0.11115121096372604,0.01573770120739937],[-0.0384361669421196,0.08455915004014969,0.02475406788289547],[-0.04220585525035858,0.05522788688540459,-0.02051265351474285],[0.06295852363109589,0.08275065571069717,-0.034016769379377365],[0.08370082825422287,0.02608519420027733,-0.06906134635210037],[-0.003707724856212735,0.07528375834226608,-0.10011859238147736],[0.09949634969234467,-0.02721381187438965,-0.07990063726902008],[-0.05111820995807648,-0.03121400997042656,-0.10229478776454926],[0.048085130751132965,0.07725775241851807,0.0545390285551548],[0.1054496169090271,-0.009881549514830112,-0.0900825783610344],[-0.09530169516801834,-0.05610111355781555,0.10433710366487503],[0.05959778651595116,-0.08483672887086868,0.06744861602783203],[0.06876620650291443,-0.10050509870052338,0.03624970465898514],[-0.009946564212441444,0.09680011123418808,-0.035124585032463074],[-0.00846165046095848,-0.06256783753633499,-0.07492765039205551],[-0.04904288426041603,-0.09164924919605255,0.04315625876188278]],[[0.03749486431479454,-0.01950415037572384,-0.05472471937537193],[0.10303539037704468,-0.007228911388665438,0.009827233850955963],[0.06977707892656326,-0.04528672620654106,0.027797559276223183],[-0.0043084993958473206,0.01674741692841053,-0.09219691157341003],[-0.08738699555397034,-0.01110602356493473,0.055654965341091156],[-0.09324943274259567,0.10362448543310165,-0.08055619150400162],[0.04327768459916115,-0.030247917398810387,0.06458992511034012],[-0.0757579654455185,0.030915822833776474,-0.07561051845550537],[-0.07731785625219345,0.014917787164449692,-0.04558701440691948],[0.046607233583927155,-0.08860435336828232,0.0404195673763752],[-0.01348764356225729,0.09449822455644608,-0.05833735316991806],[-0.009126652032136917,-0.02932024747133255,0.07769197970628738],[-0.0034044943749904633,-0.02753668650984764,0.007609283551573753],[-0.034271299839019775,0.022332867607474327,0.08944417536258698],[0.10323376208543777,0.012588907964527607,-0.004591530654579401],[-0.06694023311138153,-0.10209260880947113,-0.07783902436494827],[-0.09549486637115479,0.08324024081230164,-0.04487496241927147],[0.015452072024345398,-0.05045517534017563,-0.017459778115153313],[-0.05254027619957924,-0.08977741003036499,-0.050202399492263794],[-0.09194224327802658,-0.08264973014593124,0.04084462672472],[-0.05623790994286537,-0.08636453002691269,0.02893105149269104],[-0.10255087167024612,-0.07027015089988708,0.0791415274143219],[-0.034580036997795105,0.06202009692788124,-0.07838032394647598],[0.06084199994802475,-0.08846331387758255,-0.07577025145292282],[0.08204957097768784,0.053877342492341995,0.09609731286764145],[-0.05159095674753189,0.09505650401115417,-0.042641326785087585],[-0.0014747591922059655,0.008941848762333393,-0.008831891231238842],[0.07330948114395142,0.02443699538707733,-0.07434285432100296],[0.058944933116436005,-0.013569231145083904,-0.0820009782910347],[-0.054524876177310944,0.07819600403308868,-0.03294401988387108],[-0.009778141975402832,-0.007805956061929464,-0.023205982521176338],[-0.025211066007614136,0.0959826111793518,-0.0803506150841713]],[[0.011233960278332233,-0.02857491374015808,0.08123546838760376],[-0.09231539070606232,-0.019547471776604652,0.07068875432014465],[-0.09677089750766754,-0.05664277449250221,-0.04149729385972023],[0.09306926280260086,-0.08889070898294449,0.002933782758191228],[0.09289365261793137,0.006387936417013407,0.022403934970498085],[-0.08509929478168488,0.04932522773742676,0.04427238926291466],[-0.06066613271832466,-0.04159227013587952,0.0073972721584141254],[-0.044344186782836914,0.08060500770807266,-0.02669832669198513],[0.00224726228043437,-0.03465133532881737,-0.07079050689935684],[-0.0756879448890686,0.03314455226063728,0.0878940299153328],[-0.03775141388177872,0.06842747330665588,0.09211365133523941],[0.04720144718885422,0.09561412781476974,-0.10010821372270584],[0.042211733758449554,0.03750818967819214,-0.0615042969584465],[-0.03673810511827469,-0.034192249178886414,-0.06446006894111633],[-0.06667590886354446,-0.06067505106329918,0.07044143974781036],[-0.028756020590662956,-0.018633073195815086,-0.08816465735435486],[-0.0016326095210388303,-0.07942222058773041,0.05082031339406967],[-0.10004657506942749,-0.07702036201953888,-0.04911839962005615],[0.09721533954143524,-0.02570045366883278,0.06737060099840164],[0.006456112954765558,0.0315341018140316,0.005740659311413765],[-0.07229285687208176,0.04197258874773979,-0.012243280187249184],[0.043615199625492096,0.06014276295900345,-0.015124933794140816],[-0.07768377661705017,0.08519124239683151,0.0059253559447824955],[-0.059829551726579666,0.05875689536333084,0.005334020126610994],[0.017906595021486282,-0.07949837297201157,-0.11035748571157455],[0.04732372611761093,-0.033719711005687714,0.011616870760917664],[0.014504287391901016,0.0508512519299984,-0.012591755948960781],[0.05308422073721886,0.03917200118303299,-0.052521515637636185],[0.08139112591743469,-0.024722488597035408,0.06446298211812973],[0.09874851256608963,0.08455326408147812,-0.038988348096609116],[-0.03335161879658699,-0.05272439494729042,-0.042718566954135895],[0.07942341268062592,0.09217675030231476,-0.018514763563871384]],[[-0.07386379688978195,-0.06233206018805504,0.0013544708490371704],[-0.0007469156989827752,0.0701591894030571,0.09821143746376038],[-0.10241397470235825,-0.06293094158172607,0.041809193789958954],[-0.06891743838787079,0.03689596801996231,0.05841587856411934],[-0.029182394966483116,0.04434947669506073,0.05653852969408035],[0.017610393464565277,0.07024596631526947,-0.030704787001013756],[-0.08044826984405518,-0.036169204860925674,0.06074972823262215],[0.051429200917482376,-0.040037851780653,0.05342553183436394],[0.07129634916782379,0.003518085228279233,0.08964838087558746],[-0.02997337095439434,0.03502728044986725,0.03041127137839794],[-0.008434634655714035,0.018421703949570656,-0.09061494469642639],[-0.0009398771799169481,0.02969512529671192,-0.08661093562841415],[0.0966566652059555,-0.09569932520389557,-0.08950944244861603],[0.0006577702588401735,0.09043615311384201,0.01588420942425728],[-0.06497859954833984,-0.0009794450597837567,0.04344630986452103],[-0.07598559558391571,0.018808625638484955,0.08542259782552719],[0.0011982634896412492,0.019751140847802162,-0.01496197935193777],[-0.035634979605674744,0.06329215317964554,0.002832557773217559],[0.10320697724819183,-0.043698135763406754,-0.05380984768271446],[0.04449634626507759,-0.04831042140722275,-0.09541657567024231],[0.07760477811098099,-0.08189190924167633,-0.04476426914334297],